{"learner":{"attributes":{"best_iteration":"93","best_score":"0.652415074713406","scikit_learn":"{\"_estimator_type\": \"classifier\"}"},"feature_names":[],"feature_types":[],"gradient_booster":{"model":{"cats":{"enc":[],"feature_segments":[],"sorted_idx":[]},"gbtree_model_param":{"num_parallel_tree":"1","num_trees":"1040"},"iteration_indptr":[0,10,20,30,40,50,60,70,80,90,100,110,120,130,140,150,160,170,180,190,200,210,220,230,240,250,260,270,280,290,300,310,320,330,340,350,360,370,380,390,400,410,420,430,440,450,460,470,480,490,500,510,520,530,540,550,560,570,580,590,600,610,620,630,640,650,660,670,680,690,700,710,720,730,740,750,760,770,780,790,800,810,820,830,840,850,860,870,880,890,900,910,920,930,940,950,960,970,980,990,1000,1010,1020,1030,1040],"tree_info":[0,1,2,3,4,5,6,7,8,9,0,1,2,3,4,5,6,7,8,9,0,1,2,3,4,5,6,7,8,9,0,1,2,3,4,5,6,7,8,9,0,1,2,3,4,5,6,7,8,9,0,1,2,3,4,5,6,7,8,9,0,1,2,3,4,5,6,7,8,9,0,1,2,3,4,5,6,7,8,9,0,1,2,3,4,5,6,7,8,9,0,1,2,3,4,5,6,7,8,9,0,1,2,3,4,5,6,7,8,9,0,1,2,3,4,5,6,7,8,9,0,1,2,3,4,5,6,7,8,9,0,1,2,3,4,5,6,7,8,9,0,1,2,3,4,5,6,7,8,9,0,1,2,3,4,5,6,7,8,9,0,1,2,3,4,5,6,7,8,9,0,1,2,3,4,5,6,7,8,9,0,1,2,3,4,5,6,7,8,9,0,1,2,3,4,5,6,7,8,9,0,1,2,3,4,5,6,7,8,9,0,1,2,3,4,5,6,7,8,9,0,1,2,3,4,5,6,7,8,9,0,1,2,3,4,5,6,7,8,9,0,1,2,3,4,5,6,7,8,9,0,1,2,3,4,5,6,7,8,9,0,1,2,3,4,5,6,7,8,9,0,1,2,3,4,5,6,7,8,9,0,1,2,3,4,5,6,7,8,9,0,1,2,3,4,5,6,7,8,9,0,1,2,3,4,5,6,7,8,9,0,1,2,3,4,5,6,7,8,9,0,1,2,3,4,5,6,7,8,9,0,1,2,3,4,5,6,7,8,9,0,1,2,3,4,5,6,7,8,9,0,1,2,3,4,5,6,7,8,9,0,1,2,3,4,5,6,7,8,9,0,1,2,3,4,5,6,7,8,9,0,1,2,3,4,5,6,7,8,9,0,1,2,3,4,5,6,7,8,9,0,1,2,3,4,5,6,7,8,9,0,1,2,3,4,5,6,7,8,9,0,1,2,3,4,5,6,7,8,9,0,1,2,3,4,5,6,7,8,9,0,1,2,3,4,5,6,7,8,9,0,1,2,3,4,5,6,7,8,9,0,1,2,3,4,5,6,7,8,9,0,1,2,3,4,5,6,7,8,9,0,1,2,3,4,5,6,7,8,9,0,1,2,3,4,5,6,7,8,9,0,1,2,3,4,5,6,7,8,9,0,1,2,3,4,5,6,7,8,9,0,1,2,3,4,5,6,7,8,9,0,1,2,3,4,5,6,7,8,9,0,1,2,3,4,5,6,7,8,9,0,1,2,3,4,5,6,7,8,9,0,1,2,3,4,5,6,7,8,9,0,1,2,3,4,5,6,7,8,9,0,1,2,3,4,5,6,7,8,9,0,1,2,3,4,5,6,7,8,9,0,1,2,3,4,5,6,7,8,9,0,1,2,3,4,5,6,7,8,9,0,1,2,3,4,5,6,7,8,9,0,1,2,3,4,5,6,7,8,9,0,1,2,3,4,5,6,7,8,9,0,1,2,3,4,5,6,7,8,9,0,1,2,3,4,5,6,7,8,9,0,1,2,3,4,5,6,7,8,9,0,1,2,3,4,5,6,7,8,9,0,1,2,3,4,5,6,7,8,9,0,1,2,3,4,5,6,7,8,9,0,1,2,3,4,5,6,7,8,9,0,1,2,3,4,5,6,7,8,9,0,1,2,3,4,5,6,7,8,9,0,1,2,3,4,5,6,7,8,9,0,1,2,3,4,5,6,7,8,9,0,1,2,3,4,5,6,7,8,9,0,1,2,3,4,5,6,7,8,9,0,1,2,3,4,5,6,7,8,9,0,1,2,3,4,5,6,7,8,9,0,1,2,3,4,5,6,7,8,9,0,1,2,3,4,5,6,7,8,9,0,1,2,3,4,5,6,7,8,9,0,1,2,3,4,5,6,7,8,9,0,1,2,3,4,5,6,7,8,9,0,1,2,3,4,5,6,7,8,9,0,1,2,3,4,5,6,7,8,9,0,1,2,3,4,5,6,7,8,9,0,1,2,3,4,5,6,7,8,9,0,1,2,3,4,5,6,7,8,9,0,1,2,3,4,5,6,7,8,9,0,1,2,3,4,5,6,7,8,9,0,1,2,3,4,5,6,7,8,9,0,1,2,3,4,5,6,7,8,9,0,1,2,3,4,5,6,7,8,9,0,1,2,3,4,5,6,7,8,9,0,1,2,3,4,5,6,7,8,9,0,1,2,3,4,5,6,7,8,9,0,1,2,3,4,5,6,7,8,9,0,1,2,3,4,5,6,7,8,9,0,1,2,3,4,5,6,7,8,9,0,1,2,3,4,5,6,7,8,9,0,1,2,3,4,5,6,7,8,9,0,1,2,3,4,5,6,7,8,9],"trees":[{"base_weights":[-6.623847E-2,-4.069634E-1,7.8194344E-1,-5.007374E-1,5.0645703E-1,2.5293741E0,-6.6243604E-2,-5.3533126E-2,1.9095805E-2,-3.1029377E-2,1.1509092E-1,2.978951E-1,6.7093365E-2,1.3078424E-1,-4.8508342E-2],"categories":[],"categories_nodes":[],"categories_segments":[],"categories_sizes":[],"default_left":[0,0,0,0,0,0,0,0,0,0,0,0,0,0,0],"id":0,"left_children":[1,3,5,7,9,11,13,-1,-1,-1,-1,-1,-1,-1,-1],"loss_changes":[1.245323E1,2.8758478E0,1.8510784E1,7.785988E-1,2.1190739E0,1.4016438E0,5.9904304E0,0E0,0E0,0E0,0E0,0E0,0E0,0E0,0E0],"parents":[2147483647,0,0,1,1,2,2,3,3,4,4,5,5,6,6],"right_children":[2,4,6,8,10,12,14,-1,-1,-1,-1,-1,-1,-1,-1],"split_conditions":[7.0775706E-1,4.5897102E-1,7.847307E-1,2.369751E0,-3.218812E-1,1.9952875E-1,-8.5042495E-1,-5.3533126E-2,1.9095805E-2,-3.1029377E-2,1.1509092E-1,2.978951E-1,6.7093365E-2,1.3078424E-1,-4.8508342E-2],"split_indices":[110,24,115,1,8,34,55,0,0,0,0,0,0,0,0],"split_type":[0,0,0,0,0,0,0,0,0,0,0,0,0,0,0],"sum_hessian":[4.099012E1,2.9614006E1,1.1376112E1,2.7266554E1,2.3474517E0,3.0697446E0,8.306368E0,2.6183115E1,1.0834392E0,1.2640125E0,1.0834392E0,1.9863054E0,1.0834392E0,1.4445857E0,6.861782E0],"tree_param":{"num_deleted":"0","num_feature":"194","num_nodes":"15","size_leaf_vector":"1"}},{"base_weights":[4.9857676E-2,1.293445E0,-5.3611495E-2,4.3266508E-1,2.8175068E0,1.4815905E0,-1.8851037E-1,3.493804E-1,5.730936E-2,2.5350443E-1,-3.1029377E-2,6.7093365E-2,-4.6118427E-2],"categories":[],"categories_nodes":[],"categories_segments":[],"categories_sizes":[],"default_left":[0,0,0,0,0,0,0,0,0,0,0,0,0],"id":1,"left_children":[1,3,-1,5,7,9,11,-1,-1,-1,-1,-1,-1],"loss_changes":[3.0239288E1,1.6201414E1,0E0,6.578326E0,4.9974213E0,7.7872057E0,1.9402316E0,0E0,0E0,0E0,0E0,0E0,0E0],"parents":[2147483647,0,0,1,1,3,3,4,4,5,5,6,6],"right_children":[2,4,-1,6,8,10,12,-1,-1,-1,-1,-1,-1],"split_conditions":[-8.741581E-1,-1.9187135E-1,-5.3611495E-2,-4.08435E-1,-7.813627E-1,-3.197087E-1,-5.993827E-1,3.493804E-1,5.730936E-2,2.5350443E-1,-3.1029377E-2,6.7093365E-2,-4.6118427E-2],"split_indices":[3,19,0,39,115,11,0,0,0,0,0,0,0],"split_type":[0,0,0,0,0,0,0,0,0,0,0,0,0],"sum_hessian":[3.9545532E1,1.2278978E1,2.7266554E1,8.667514E0,3.6114643E0,2.7085981E0,5.9589157E0,2.3474517E0,1.2640125E0,1.4445857E0,1.2640125E0,1.0834392E0,4.875477E0],"tree_param":{"num_deleted":"0","num_feature":"194","num_nodes":"13","size_leaf_vector":"1"}},{"base_weights":[-7.025823E-3,-2.0555218E-1,1.6008496E0,-4.9657744E-1,5.3744555E-1,2.4616349E-1,-3.1029377E-2,1.9095805E-2,-5.3371947E-2,1.6469975E0,-3.2625517E-1,2.7774033E-1,-3.440652E-2,1.9095805E-2,-4.5818493E-2],"categories":[],"categories_nodes":[],"categories_segments":[],"categories_sizes":[],"default_left":[0,0,0,0,0,0,0,0,0,0,0,0,0,0,0],"id":2,"left_children":[1,3,5,7,9,-1,-1,-1,-1,11,13,-1,-1,-1,-1],"loss_changes":[1.2867942E1,8.018904E0,8.05302E0,7.7302265E-1,1.0667156E1,0E0,0E0,0E0,0E0,1.1741088E1,5.500198E-1,0E0,0E0,0E0,0E0],"parents":[2147483647,0,0,1,1,2,2,3,3,4,4,9,9,10,10],"right_children":[2,4,6,8,10,-1,-1,-1,-1,12,14,-1,-1,-1,-1],"split_conditions":[6.3419515E-1,-2.513133E-1,5.06748E-1,-3.8455775E-1,3.0779558E-1,2.4616349E-1,-3.1029377E-2,1.9095805E-2,-5.3371947E-2,-3.2767308E-1,-3.4922752E-1,2.7774033E-1,-3.440652E-2,1.9095805E-2,-4.5818493E-2],"split_indices":[68,27,28,9,172,0,0,0,0,40,1,0,0,0,0],"split_type":[0,0,0,0,0,0,0,0,0,0,0,0,0,0,0],"sum_hessian":[3.828152E1,3.4850628E1,3.430891E0,2.5280249E1,9.57038E0,2.1668785E0,1.2640125E0,1.0834392E0,2.419681E1,3.7920375E0,5.7783427E0,2.1668785E0,1.6251589E0,1.0834392E0,4.6949034E0],"tree_param":{"num_deleted":"0","num_feature":"194","num_nodes":"15","size_leaf_vector":"1"}},{"base_weights":[-3.7969816E-2,-5.2741956E-2,3.8021272E-1,-2.2177872E-1,1.1339346E0,1.1509092E-1,-4.3187663E-1,2.4817154E0,-1.6840694E-2,1.9095805E-2,-5.0733577E-2,3.0994526E-1,1.9095805E-2,-4.549892E-2,1.1509092E-1],"categories":[],"categories_nodes":[],"categories_segments":[],"categories_sizes":[],"default_left":[0,0,0,0,0,0,0,0,0,0,0,0,0,0,0],"id":3,"left_children":[1,-1,3,5,7,-1,9,11,13,-1,-1,-1,-1,-1,-1],"loss_changes":[8.721122E0,0E0,1.0700949E1,4.430847E0,1.6156311E1,0E0,6.87026E-1,6.1892796E0,3.8993857E0,0E0,0E0,0E0,0E0,0E0,0E0],"parents":[2147483647,0,0,2,2,3,3,4,4,6,6,7,7,8,8],"right_children":[2,-1,4,6,8,-1,10,12,14,-1,-1,-1,-1,-1,-1],"split_conditions":[-4.744551E-1,-5.2741956E-2,1.0947901E-1,-9.602868E-1,6.405551E-1,1.1509092E-1,-4.510269E-1,2.3785631E-1,1.7092861E0,1.9095805E-2,-5.0733577E-2,3.0994526E-1,1.9095805E-2,-4.549892E-2,1.1509092E-1],"split_indices":[31,0,140,76,143,0,1,35,4,0,0,0,0,0,0],"split_type":[0,0,0,0,0,0,0,0,0,0,0,0,0,0,0],"sum_hessian":[4.062897E1,1.8599041E1,2.2029932E1,1.2640124E1,9.389807E0,1.0834392E0,1.1556685E1,3.7920375E0,5.5977697E0,1.0834392E0,1.0473247E1,2.7085981E0,1.0834392E0,4.5143304E0,1.0834392E0],"tree_param":{"num_deleted":"0","num_feature":"194","num_nodes":"15","size_leaf_vector":"1"}},{"base_weights":[1.1932496E-2,-3.4395283E-1,1.4893796E0,-5.103202E-1,2.1259768E-1,2.462896E0,2.1031892E-2,1.9095805E-2,-5.3900737E-2,1.3139992E-2,3.1868654E-1,-3.8974706E-2,6.7093365E-2],"categories":[],"categories_nodes":[],"categories_segments":[],"categories_sizes":[],"default_left":[0,0,0,0,0,0,0,0,0,0,0,0,0],"id":4,"left_children":[1,3,5,7,-1,9,11,-1,-1,-1,-1,-1,-1],"loss_changes":[2.3255373E1,1.5742315E1,1.22188E1,7.9146385E-1,0E0,8.279469E0,1.4443914E0,0E0,0E0,0E0,0E0,0E0,0E0],"parents":[2147483647,0,0,1,1,2,2,3,3,5,5,6,6],"right_children":[2,4,6,8,-1,10,12,-1,-1,-1,-1,-1,-1],"split_conditions":[1.5954751E-1,3.5338986E0,-4.097021E-1,-1.8553083E0,2.1259768E-1,-7.455441E-1,-3.5482445E-1,1.9095805E-2,-5.3900737E-2,1.3139992E-2,3.1868654E-1,-3.8974706E-2,6.7093365E-2],"split_indices":[11,6,81,0,0,51,7,0,0,0,0,0,0],"split_type":[0,0,0,0,0,0,0,0,0,0,0,0,0],"sum_hessian":[4.225413E1,3.4670055E1,7.584075E0,3.322547E1,1.4445857E0,4.153184E0,3.430891E0,1.0834392E0,3.2142033E1,1.2640125E0,2.8891714E0,2.3474517E0,1.0834392E0],"tree_param":{"num_deleted":"0","num_feature":"194","num_nodes":"13","size_leaf_vector":"1"}},{"base_weights":[-8.6422466E-2,-2.3155007E-1,1.9743653E-1,-3.8415107E-1,1.0826999E0,-4.5709085E-1,5.670249E-1,2.3224401E-1,-3.6966838E-2,-5.100791E-1,3.000555E-2,1.1509092E-1,-2.8901756E-2,-5.3891547E-2,1.9095805E-2],"categories":[],"categories_nodes":[],"categories_segments":[],"categories_sizes":[],"default_left":[0,0,0,0,0,0,0,0,0,0,0,0,0,0,0],"id":5,"left_children":[1,3,-1,5,7,9,11,-1,-1,13,-1,-1,-1,-1,-1],"loss_changes":[1.3555504E1,8.80107E0,0E0,2.909309E0,9.161747E0,1.5986195E0,1.915533E0,0E0,0E0,7.9114056E-1,0E0,0E0,0E0,0E0,0E0],"parents":[2147483647,0,0,1,1,3,3,4,4,5,5,6,6,9,9],"right_children":[2,4,-1,6,8,10,12,-1,-1,14,-1,-1,-1,-1,-1],"split_conditions":[1.8058572E0,1.0254667E0,1.9743653E-1,1.617347E0,-9.633549E-2,1.6845201E0,-3.8307056E-1,2.3224401E-1,-3.6966838E-2,1.7791537E0,3.000555E-2,1.1509092E-1,-2.8901756E-2,-5.3891547E-2,1.9095805E-2],"split_indices":[110,172,0,33,28,77,10,0,0,29,0,0,0,0,0],"split_type":[0,0,0,0,0,0,0,0,0,0,0,0,0,0,0],"sum_hessian":[4.2795853E1,4.0809544E1,1.9863054E0,3.7198082E1,3.6114643E0,3.5031204E1,2.1668785E0,1.6251589E0,1.9863054E0,3.30449E1,1.9863054E0,1.0834392E0,1.0834392E0,3.1961458E1,1.0834392E0],"tree_param":{"num_deleted":"0","num_feature":"194","num_nodes":"15","size_leaf_vector":"1"}},{"base_weights":[1.54635515E-2,-3.3005655E-1,9.0950006E-1,-4.609579E-1,1.1033696E-1,-4.5374375E-2,1.8919286E0,-5.307445E-2,3.732223E-2,-7.885547E-2,2.9055765E0,-3.844198E-2,6.927372E-2,-3.0463273E-2,2.0467227E-2,3.5879165E-1,5.9475876E-2],"categories":[],"categories_nodes":[],"categories_segments":[],"categories_sizes":[],"default_left":[0,0,0,0,0,0,0,0,0,0,0,0,0,0,0,0,0],"id":6,"left_children":[1,3,5,7,-1,-1,9,-1,11,13,15,-1,-1,-1,-1,-1,-1],"loss_changes":[1.2543668E1,6.010233E0,1.6011517E1,9.7858906E-1,0E0,0E0,1.375141E1,0E0,1.4608451E0,2.7184463E-1,4.9557533E0,0E0,0E0,0E0,0E0,0E0,0E0],"parents":[2147483647,0,0,1,1,2,2,3,3,6,6,8,8,9,9,10,10],"right_children":[2,4,6,8,-1,-1,10,-1,12,14,16,-1,-1,-1,-1,-1,-1],"split_conditions":[8.66568E-3,2.0397866E0,-6.148315E-1,7.739417E-1,1.1033696E-1,-4.5374375E-2,4.6697947E-1,-5.307445E-2,-1.7572679E-1,4.356408E-2,-3.2978877E-1,-3.844198E-2,6.927372E-2,-3.0463273E-2,2.0467227E-2,3.5879165E-1,5.9475876E-2],"split_indices":[28,3,56,1,0,0,105,0,18,0,12,0,0,0,0,0,0],"split_type":[0,0,0,0,0,0,0,0,0,0,0,0,0,0,0,0,0],"sum_hessian":[3.863477E1,2.832051E1,1.031426E1,2.657233E1,1.7481797E0,4.545267E0,5.768993E0,2.325079E1,3.3215413E0,2.2726336E0,3.4963593E0,2.2726336E0,1.0489078E0,1.2237258E0,1.0489078E0,2.2726336E0,1.2237258E0],"tree_param":{"num_deleted":"0","num_feature":"194","num_nodes":"17","size_leaf_vector":"1"}},{"base_weights":[1.0073646E-2,-1.7107934E-1,1.4383179E0,-4.5286936E-1,3.4098288E-1,2.3092273E-1,-1.2774557E-4,-5.3237796E-2,6.7093365E-2,-1.9471422E-1,1.2985673E0,8.987751E-2,-4.8964057E-2,2.3092273E-1,-6.45118E-2,-2.8901756E-2,1.9095805E-2],"categories":[],"categories_nodes":[],"categories_segments":[],"categories_sizes":[],"default_left":[0,0,0,0,0,0,0,0,0,0,0,0,0,0,0,0,0],"id":7,"left_children":[1,3,5,7,9,-1,-1,-1,-1,11,13,-1,-1,-1,15,-1,-1],"loss_changes":[1.101676E1,5.6140647E0,6.0110006E0,2.5763059E0,7.435155E0,0E0,0E0,0E0,0E0,3.616073E0,7.248047E0,0E0,0E0,0E0,2.368248E-1,0E0,0E0],"parents":[2147483647,0,0,1,1,2,2,3,3,4,4,9,9,10,10,14,14],"right_children":[2,4,6,8,10,-1,-1,-1,-1,12,14,-1,-1,-1,16,-1,-1],"split_conditions":[1.080121E0,3.4718135E-1,1.0626093E0,1.7599052E0,-3.858341E-1,2.3092273E-1,-1.2774557E-4,-5.3237796E-2,6.7093365E-2,-3.8108736E-1,-1.4253464E-1,8.987751E-2,-4.8964057E-2,2.3092273E-1,-4.2557704E-1,-2.8901756E-2,1.9095805E-2],"split_indices":[181,79,176,118,70,0,0,0,0,9,123,0,0,0,1,0,0],"split_type":[0,0,0,0,0,0,0,0,0,0,0,0,0,0,0,0,0],"sum_hessian":[4.062897E1,3.6836933E1,3.7920375E0,2.3835663E1,1.3001271E1,1.9863054E0,1.8057321E0,2.2752224E1,1.0834392E0,8.848087E0,4.153184E0,1.4445857E0,7.4035015E0,1.9863054E0,2.1668785E0,1.0834392E0,1.0834392E0],"tree_param":{"num_deleted":"0","num_feature":"194","num_nodes":"17","size_leaf_vector":"1"}},{"base_weights":[-1.1587566E-2,2.7736166E0,-3.8084325E-1,1.9095805E-2,3.4439895E-1,-5.119392E-1,1.3046414E-1,-5.3962346E-2,1.9095805E-2],"categories":[],"categories_nodes":[],"categories_segments":[],"categories_sizes":[],"default_left":[0,0,0,0,0,0,0,0,0],"id":8,"left_children":[1,3,5,-1,-1,7,-1,-1,-1],"loss_changes":[4.3684017E1,7.951645E0,8.948557E0,0E0,0E0,7.9364014E-1,0E0,0E0,0E0],"parents":[2147483647,0,0,1,1,2,2,5,5],"right_children":[2,4,6,-1,-1,8,-1,-1,-1],"split_conditions":[-1.1577735E0,-2.7647522E-1,1.805497E0,1.9095805E-2,3.4439895E-1,2.397558E0,1.3046414E-1,-5.3962346E-2,1.9095805E-2],"split_indices":[95,38,49,0,0,83,0,0,0],"split_type":[0,0,0,0,0,0,0,0,0],"sum_hessian":[4.04484E1,3.9726107E0,3.647579E1,1.0834392E0,2.8891714E0,3.4489483E1,1.9863054E0,3.3406044E1,1.0834392E0],"tree_param":{"num_deleted":"0","num_feature":"194","num_nodes":"9","size_leaf_vector":"1"}},{"base_weights":[-4.4621505E-2,1.1416783E0,-4.454832E-1,-7.66068E-2,1.9535222E0,-5.3783424E-2,1.0147873E-1,6.7093365E-2,-4.2501565E-2,2.5481846E0,-3.1029377E-2,3.104132E-1,1.9095805E-2],"categories":[],"categories_nodes":[],"categories_segments":[],"categories_sizes":[],"default_left":[0,0,0,0,0,0,0,0,0,0,0,0,0],"id":9,"left_children":[1,3,5,7,9,-1,-1,-1,-1,11,-1,-1,-1],"loss_changes":[2.056254E1,1.0961558E1,4.8934803E0,1.6743326E0,9.672646E0,0E0,0E0,0E0,0E0,6.3971024E0,0E0,0E0,0E0],"parents":[2147483647,0,0,1,1,2,2,3,3,4,4,9,9],"right_children":[2,4,6,8,10,-1,-1,-1,-1,12,-1,-1,-1],"split_conditions":[-8.788445E-1,-4.04486E-1,1.8985593E0,-9.3936074E-1,6.2291276E-1,-5.3783424E-2,1.0147873E-1,6.7093365E-2,-4.2501565E-2,-1.6856319E-1,-3.1029377E-2,3.104132E-1,1.9095805E-2],"split_indices":[3,39,97,44,76,0,0,0,0,18,0,0,0],"split_type":[0,0,0,0,0,0,0,0,0,0,0,0,0],"sum_hessian":[4.1170692E1,9.931526E0,3.1239166E1,4.333757E0,5.5977697E0,2.9975153E1,1.2640125E0,1.0834392E0,3.2503178E0,4.333757E0,1.2640125E0,3.2503178E0,1.0834392E0],"tree_param":{"num_deleted":"0","num_feature":"194","num_nodes":"13","size_leaf_vector":"1"}},{"base_weights":[9.839978E-3,-3.7343344E-1,8.639564E-1,-4.9841154E-1,7.149623E-1,1.6450535E0,-4.5952056E-2,-5.3283304E-2,8.22436E-3,-3.365114E-2,1.650419E-1,-3.528745E-2,2.1880786E0,2.8078165E0,4.124672E-3,6.51598E-2,3.206988E-1],"categories":[],"categories_nodes":[],"categories_segments":[],"categories_sizes":[],"default_left":[0,0,0,0,0,0,0,0,0,0,0,0,0,0,0,0,0],"id":10,"left_children":[1,3,5,7,9,11,-1,-1,-1,-1,-1,-1,13,15,-1,-1,-1],"loss_changes":[1.4535434E1,4.5277987E0,1.4969925E1,6.05402E-1,4.0663214E0,1.038995E1,0E0,0E0,0E0,0E0,0E0,0E0,9.342941E0,2.6457863E0,0E0,0E0,0E0],"parents":[2147483647,0,0,1,1,2,2,3,3,4,4,5,5,12,12,13,13],"right_children":[2,4,6,8,10,12,-1,-1,-1,-1,-1,-1,14,16,-1,-1,-1],"split_conditions":[5.9727204E-1,1.4460254E0,1.3513297E-1,1.3144491E0,-3.2307497E-1,-1.2781931E0,-4.5952056E-2,-5.3283304E-2,8.22436E-3,-3.365114E-2,1.650419E-1,-3.528745E-2,-5.2322052E-2,-5.8231596E-2,4.124672E-3,6.51598E-2,3.206988E-1],"split_indices":[173,1,63,28,8,137,0,0,0,0,0,0,183,106,0,0,0],"split_type":[0,0,0,0,0,0,0,0,0,0,0,0,0,0,0,0,0],"sum_hessian":[4.2416416E1,2.9666674E1,1.2749743E1,2.7097227E1,2.5694473E0,7.8649716E0,4.884772E0,2.5658537E1,1.43869E0,1.5111511E0,1.0582962E0,1.7556517E0,6.1093197E0,4.5018563E0,1.6074636E0,1.1144218E0,3.3874342E0],"tree_param":{"num_deleted":"0","num_feature":"194","num_nodes":"17","size_leaf_vector":"1"}},{"base_weights":[-9.1808476E-2,8.054559E-1,-5.3293925E-2,3.0259341E-2,2.0794148E0,1.038623E0,-4.7473002E-2,2.7144325E-1,1.1989511E-2,-3.2031115E-2,2.037148E-1],"categories":[],"categories_nodes":[],"categories_segments":[],"categories_sizes":[],"default_left":[0,0,0,0,0,0,0,0,0,0,0],"id":11,"left_children":[1,3,-1,5,7,9,-1,-1,-1,-1,-1],"loss_changes":[1.6243156E1,1.3335053E1,0E0,5.3046856E0,6.0424023E0,5.3566804E0,0E0,0E0,0E0,0E0,0E0],"parents":[2147483647,0,0,1,1,3,3,4,4,5,5],"right_children":[2,4,-1,6,8,10,-1,-1,-1,-1,-1],"split_conditions":[-8.7049043E-1,-1.9187135E-1,-5.3293925E-2,-4.08435E-1,-6.4712614E-1,-1.5774123E-1,-4.7473002E-2,2.7144325E-1,1.1989511E-2,-3.2031115E-2,2.037148E-1],"split_indices":[3,19,0,39,115,8,0,0,0,0,0],"split_type":[0,0,0,0,0,0,0,0,0,0,0],"sum_hessian":[3.8953163E1,1.25666275E1,2.6386534E1,8.449132E0,4.1174955E0,2.4667664E0,5.9823656E0,2.8187685E0,1.298727E0,1.3325115E0,1.1342547E0],"tree_param":{"num_deleted":"0","num_feature":"194","num_nodes":"11","size_leaf_vector":"1"}},{"base_weights":[-2.7595615E-2,-3.0964395E-1,7.633448E-1,-3.9977303E-1,9.26963E-2,-2.6968485E-1,1.5060748E0,-4.6347818E-1,5.3703334E-2,-4.2707786E-2,1.8693466E-2,2.6054752E-1,-3.849382E-2,-5.3255405E-2,1.913633E-1,-3.199811E-2,6.946591E-2],"categories":[],"categories_nodes":[],"categories_segments":[],"categories_sizes":[],"default_left":[0,0,0,0,0,0,0,0,0,0,0,0,0,0,0,0,0],"id":12,"left_children":[1,3,5,7,-1,9,11,13,-1,-1,-1,-1,-1,-1,15,-1,-1],"loss_changes":[9.326594E0,3.7976136E0,8.845839E0,2.0009847E0,0E0,4.714396E-1,1.46220255E1,1.369617E0,0E0,0E0,0E0,0E0,0E0,0E0,1.0998288E0,0E0,0E0],"parents":[2147483647,0,0,1,1,2,2,3,3,5,5,6,6,7,7,14,14],"right_children":[2,4,6,8,-1,10,12,14,-1,-1,-1,-1,-1,-1,16,-1,-1],"split_conditions":[6.157212E-1,1.7148343E0,-1.107035E-2,1.5618371E0,9.26963E-2,5.4153055E-1,4.4547603E-1,1.4259537E0,5.3703334E-2,-4.2707786E-2,1.8693466E-2,2.6054752E-1,-3.849382E-2,-5.3255405E-2,-7.689771E-1,-3.199811E-2,6.946591E-2],"split_indices":[3,133,21,23,0,45,47,188,0,0,0,0,0,0,2,0,0],"split_type":[0,0,0,0,0,0,0,0,0,0,0,0,0,0,0,0,0],"sum_hessian":[3.9748116E1,2.9748388E1,9.999725E0,2.835824E1,1.3901492E0,4.4488797E0,5.5508456E0,2.7025684E1,1.3325558E0,3.356588E0,1.0922917E0,3.2712064E0,2.2796392E0,2.4615831E1,2.4098525E0,1.376038E0,1.0338147E0],"tree_param":{"num_deleted":"0","num_feature":"194","num_nodes":"17","size_leaf_vector":"1"}},{"base_weights":[-5.924311E-3,-4.3604302E-1,4.530864E-1,-5.2380722E-2,5.6868583E-2,-4.056241E-1,1.2403519E0,6.776865E-2,-3.7556574E-2,2.0707872E-2,-4.9530793E-2,2.526502E-1,4.9523237E-1,1.7892879E-1,-1.5361977E-1,7.071872E-2,-4.5128778E-2],"categories":[],"categories_nodes":[],"categories_segments":[],"categories_sizes":[],"default_left":[0,0,0,0,0,0,0,0,0,0,0,0,0,0,0,0,0],"id":13,"left_children":[1,3,5,-1,7,9,11,-1,-1,-1,-1,-1,13,-1,15,-1,-1],"loss_changes":[8.293392E0,9.676199E-1,1.4245045E1,0E0,1.3763298E0,6.782217E-1,9.147926E0,0E0,0E0,0E0,0E0,0E0,7.0882535E0,0E0,1.9399704E0,0E0,0E0],"parents":[2147483647,0,0,1,1,2,2,4,4,5,5,6,6,12,12,14,14],"right_children":[2,4,6,-1,8,10,12,-1,-1,-1,-1,-1,14,-1,16,-1,-1],"split_conditions":[-2.1693008E-2,8.738952E-1,-4.1941592E-1,-5.2380722E-2,-3.895465E-1,-6.729138E-1,5.110498E-3,6.776865E-2,-3.7556574E-2,2.0707872E-2,-4.9530793E-2,2.526502E-1,-4.4218656E-1,1.7892879E-1,-4.198527E-1,7.071872E-2,-4.5128778E-2],"split_indices":[143,103,28,0,76,19,102,0,0,0,0,0,2,0,107,0,0],"split_type":[0,0,0,0,0,0,0,0,0,0,0,0,0,0,0,0,0],"sum_hessian":[4.000625E1,2.0678953E1,1.9327297E1,1.7500298E1,3.178655E0,9.476053E0,9.851244E0,1.0722098E0,2.106445E0,1.0428069E0,8.433247E0,2.7366984E0,7.114546E0,1.7889953E0,5.325551E0,1.014892E0,4.310659E0],"tree_param":{"num_deleted":"0","num_feature":"194","num_nodes":"17","size_leaf_vector":"1"}},{"base_weights":[-7.3157325E-2,1.1196744E0,-4.7155967E-1,1.7310981E-1,2.0421364E0,-5.3488232E-2,7.013164E-2,-4.325301E-2,1.1277928E-1,1.829274E-2,2.4977544E-1],"categories":[],"categories_nodes":[],"categories_segments":[],"categories_sizes":[],"default_left":[0,0,0,0,0,0,0,0,0,0,0],"id":14,"left_children":[1,3,5,7,9,-1,-1,-1,-1,-1,-1],"loss_changes":[1.9784498E1,8.763804E0,2.6833467E0,4.099268E0,3.9441605E0,0E0,0E0,0E0,0E0,0E0,0E0],"parents":[2147483647,0,0,1,1,2,2,3,3,4,4],"right_children":[2,4,6,8,10,-1,-1,-1,-1,-1,-1],"split_conditions":[-7.7573246E-1,-2.3880938E-1,2.8349826E0,-7.4884176E-1,-6.7265767E-1,-5.3488232E-2,7.013164E-2,-4.325301E-2,1.1277928E-1,1.829274E-2,2.4977544E-1],"split_indices":[2,51,6,117,5,0,0,0,0,0,0],"split_type":[0,0,0,0,0,0,0,0,0,0,0],"sum_hessian":[3.952064E1,9.44163E0,3.0079012E1,5.246109E0,4.195522E0,2.9054348E1,1.0246634E0,3.5444741E0,1.7016348E0,1.1016377E0,3.0938842E0],"tree_param":{"num_deleted":"0","num_feature":"194","num_nodes":"11","size_leaf_vector":"1"}},{"base_weights":[-6.1642263E-2,-4.9554566E-1,7.6809955E-1,2.0174107E-2,-5.3224422E-2,-5.6129858E-2,1.9152497E0,-3.5454983E-1,9.517699E-2,2.455299E0,-2.8435305E-2,-4.723366E-2,2.024745E-2,2.9312983E-1,8.542827E-2],"categories":[],"categories_nodes":[],"categories_segments":[],"categories_sizes":[],"default_left":[0,0,0,0,0,0,0,0,0,0,0,0,0,0,0],"id":15,"left_children":[1,3,5,-1,-1,7,9,11,-1,13,-1,-1,-1,-1,-1],"loss_changes":[1.4636712E1,7.8826714E-1,1.333413E1,0E0,0E0,3.0780275E0,7.679619E0,6.046879E-1,0E0,1.1709328E0,0E0,0E0,0E0,0E0,0E0],"parents":[2147483647,0,0,1,1,2,2,5,5,6,6,7,7,9,9],"right_children":[2,4,6,-1,-1,8,10,12,-1,14,-1,-1,-1,-1,-1],"split_conditions":[5.8710124E-2,-9.692592E-1,-1.2244112E-1,2.0174107E-2,-5.3224422E-2,-9.3067884E-2,-3.791043E-1,7.499729E-1,9.517699E-2,-4.6138063E-1,-2.8435305E-2,-4.723366E-2,2.024745E-2,2.9312983E-1,8.542827E-2],"split_indices":[30,35,37,0,0,14,9,51,0,50,0,0,0,0,0],"split_type":[0,0,0,0,0,0,0,0,0,0,0,0,0,0,0],"sum_hessian":[3.8597176E1,2.5608362E1,1.29888115E1,1.0555341E0,2.455283E1,8.111648E0,4.8771634E0,6.758742E0,1.352906E0,3.822429E0,1.0547342E0,5.704517E0,1.0542248E0,2.3059475E0,1.5164814E0],"tree_param":{"num_deleted":"0","num_feature":"194","num_nodes":"15","size_leaf_vector":"1"}},{"base_weights":[-7.7984026E-3,-3.8273653E-1,8.540743E-1,-4.9021012E-1,8.343897E-2,1.9611365E0,-3.1622514E-1,-5.287956E-2,2.2323078E-2,2.5784E-1,-3.0320918E-2,2.102561E-2,-4.530662E-2],"categories":[],"categories_nodes":[],"categories_segments":[],"categories_sizes":[],"default_left":[0,0,0,0,0,0,0,0,0,0,0,0,0],"id":16,"left_children":[1,3,5,7,-1,9,11,-1,-1,-1,-1,-1,-1],"loss_changes":[1.2475387E1,3.9262228E0,1.57864895E1,8.155141E-1,0E0,9.383825E0,5.6726897E-1,0E0,0E0,0E0,0E0,0E0,0E0],"parents":[2147483647,0,0,1,1,2,2,3,3,5,5,6,6],"right_children":[2,4,6,8,-1,10,12,-1,-1,-1,-1,-1,-1],"split_conditions":[5.311604E-1,1.9658223E0,-2.581454E-1,1.1653222E0,8.343897E-2,-1.2690836E-1,-8.1011933E-1,-5.287956E-2,2.2323078E-2,2.5784E-1,-3.0320918E-2,2.102561E-2,-4.530662E-2],"split_indices":[105,3,37,174,0,43,55,0,0,0,0,0,0],"split_type":[0,0,0,0,0,0,0,0,0,0,0,0,0],"sum_hessian":[3.6594124E1,2.5888042E1,1.07060795E1,2.4336355E1,1.5516875E0,5.154422E0,5.5516577E0,2.333322E1,1.0031357E0,3.9413178E0,1.213104E0,1.0346094E0,4.5170484E0],"tree_param":{"num_deleted":"0","num_feature":"194","num_nodes":"13","size_leaf_vector":"1"}},{"base_weights":[-9.327201E-2,-2.8883392E-1,1.2729034E0,-3.868543E-1,6.4041144E-1,1.9958478E-1,-1.4674993E-3,-4.6857235E-1,2.6524857E-1,1.5044048E-1,-3.40819E-2,-5.0021684E-1,1.9783283E-2,-3.816549E-2,1.1033374E-1,1.7116873E-2,-5.3402085E-2],"categories":[],"categories_nodes":[],"categories_segments":[],"categories_sizes":[],"default_left":[0,0,0,0,0,0,0,0,0,0,0,0,0,0,0,0,0],"id":17,"left_children":[1,3,5,7,9,-1,-1,11,13,-1,-1,15,-1,-1,-1,-1,-1],"loss_changes":[1.107801E1,3.5161574E0,4.8741436E0,1.8872128E0,3.7347095E0,0E0,0E0,7.265396E-1,2.7646484E0,0E0,0E0,7.4263954E-1,0E0,0E0,0E0,0E0,0E0],"parents":[2147483647,0,0,1,1,2,2,3,3,4,4,7,7,8,8,11,11],"right_children":[2,4,6,8,10,-1,-1,12,14,-1,-1,16,-1,-1,-1,-1,-1],"split_conditions":[1.080121E0,1.7692994E0,-2.7713006E-2,1.8859493E0,2.397814E-1,1.9958478E-1,-1.4674993E-3,2.4836965E0,4.0409133E-1,1.5044048E-1,-3.40819E-2,-3.4765354E-1,1.9783283E-2,-3.816549E-2,1.1033374E-1,1.7116873E-2,-5.3402085E-2],"split_indices":[181,4,25,3,103,0,0,45,48,0,0,18,0,0,0,0,0],"split_type":[0,0,0,0,0,0,0,0,0,0,0,0,0,0,0,0,0],"sum_hessian":[3.9087875E1,3.48831E1,4.2047772E0,3.2082592E1,2.800506E0,2.340541E0,1.8642361E0,2.8759987E1,3.322604E0,1.2056897E0,1.5948164E0,2.7694294E1,1.0656941E0,2.182551E0,1.140053E0,1.1327636E0,2.656153E1],"tree_param":{"num_deleted":"0","num_feature":"194","num_nodes":"17","size_leaf_vector":"1"}},{"base_weights":[8.292398E-2,2.476971E0,-3.7061146E-1,2.85174E-1,2.0419203E-2,-5.0688154E-1,1.156074E0,2.0195294E-2,-5.3615857E-2,-3.0789092E-2,2.1754216E-1],"categories":[],"categories_nodes":[],"categories_segments":[],"categories_sizes":[],"default_left":[0,0,0,0,0,0,0,0,0,0,0],"id":18,"left_children":[1,3,5,-1,-1,7,9,-1,-1,-1,-1],"loss_changes":[4.5955383E1,5.1556664E0,8.021931E0,0E0,0E0,8.0367184E-1,5.4954276E0,0E0,0E0,0E0,0E0],"parents":[2147483647,0,0,1,1,2,2,5,5,6,6],"right_children":[2,4,6,-1,-1,8,10,-1,-1,-1,-1],"split_conditions":[-1.1577735E0,-4.8005104E-1,1.805497E0,2.85174E-1,2.0419203E-2,-1.391909E0,-7.7657694E-1,2.0195294E-2,-5.3615857E-2,-3.0789092E-2,2.1754216E-1],"split_indices":[95,27,49,0,0,106,2,0,0,0,0],"split_type":[0,0,0,0,0,0,0,0,0,0,0],"sum_hessian":[4.04791E1,5.736541E0,3.474256E1,4.705836E0,1.030705E0,3.2508846E1,2.2337132E0,1.0555134E0,3.1453333E1,1.2033873E0,1.030326E0],"tree_param":{"num_deleted":"0","num_feature":"194","num_nodes":"11","size_leaf_vector":"1"}},{"base_weights":[-1.2693223E-2,1.015459E0,-4.667267E-1,-4.3520004E-2,1.5991158E0,-5.3350307E-2,6.067866E-2,2.0524955E0,-3.4713216E-2,2.4651527E0,8.780856E-3,5.5916257E-2,2.8339183E-1],"categories":[],"categories_nodes":[],"categories_segments":[],"categories_sizes":[],"default_left":[0,0,0,0,0,0,0,0,0,0,0,0,0],"id":19,"left_children":[1,3,5,-1,7,-1,-1,9,-1,11,-1,-1,-1],"loss_changes":[1.9815475E1,1.1708722E1,2.433137E0,0E0,9.085552E0,0E0,0E0,6.1404915E0,0E0,2.9438972E0,0E0,0E0,0E0],"parents":[2147483647,0,0,1,1,2,2,4,4,7,7,9,9],"right_children":[2,4,6,-1,8,-1,-1,10,-1,12,-1,-1,-1],"split_conditions":[-8.788445E-1,-1.0059958E0,1.8985593E0,-4.3520004E-2,2.689041E0,-5.3350307E-2,6.067866E-2,1.7536987E-1,-3.4713216E-2,-7.459292E-1,8.780856E-3,5.5916257E-2,2.8339183E-1],"split_indices":[3,108,97,0,12,0,0,179,0,29,0,0,0],"split_type":[0,0,0,0,0,0,0,0,0,0,0,0,0],"sum_hessian":[4.043293E1,1.2006915E1,2.8426014E1,3.517829E0,8.489086E0,2.7234934E1,1.1910802E0,6.8409033E0,1.648183E0,5.4429502E0,1.397953E0,1.2902927E0,4.1526575E0],"tree_param":{"num_deleted":"0","num_feature":"194","num_nodes":"13","size_leaf_vector":"1"}},{"base_weights":[5.5117212E-2,-3.3181497E-1,9.205401E-1,-5.294838E-2,5.1843816E-1,1.6105063E0,-4.4494644E-2,1.92818E-1,-4.2873383E-2,-2.8511733E-2,1.9011332E0,1.1212903E-2,2.2436779E0,2.56605E-1,5.371354E-2],"categories":[],"categories_nodes":[],"categories_segments":[],"categories_sizes":[],"default_left":[0,0,0,0,0,0,0,0,0,0,0,0,0,0,0],"id":20,"left_children":[1,3,5,-1,7,9,-1,-1,-1,-1,11,-1,13,-1,-1],"loss_changes":[1.4254526E1,5.2360845E0,1.3091856E1,0E0,8.936866E0,5.46867E0,0E0,0E0,0E0,0E0,4.5799656E0,0E0,2.2331314E0,0E0,0E0],"parents":[2147483647,0,0,1,1,2,2,4,4,5,5,10,10,12,12],"right_children":[2,4,6,-1,8,10,-1,-1,-1,-1,12,-1,14,-1,-1],"split_conditions":[5.9727204E-1,-1.3212566E-1,1.3513297E-1,-5.294838E-2,-5.790189E-1,-3.3246523E-1,-4.4494644E-2,1.92818E-1,-4.2873383E-2,-2.8511733E-2,-5.7187444E-1,1.1212903E-2,4.9738342E-1,2.56605E-1,5.371354E-2],"split_indices":[177,69,63,0,60,12,0,0,0,0,30,0,19,0,0],"split_type":[0,0,0,0,0,0,0,0,0,0,0,0,0,0,0],"sum_hessian":[4.065645E1,2.8521168E1,1.2135281E1,2.344734E1,5.0738287E0,7.9425535E0,4.1927276E0,1.6227919E0,3.4510367E0,1.0583549E0,6.8841987E0,1.3196129E0,5.5645857E0,4.2568054E0,1.3077803E0],"tree_param":{"num_deleted":"0","num_feature":"194","num_nodes":"15","size_leaf_vector":"1"}},{"base_weights":[-3.3025507E-2,9.405761E-1,-5.29944E-2,-2.4604267E-1,1.458701E0,-4.146461E-2,2.1031486E-2,1.9005036E0,-3.5029158E-2,-2.7791923E-2,2.2638326E0,6.612572E-2,2.4486838E-1],"categories":[],"categories_nodes":[],"categories_segments":[],"categories_sizes":[],"default_left":[0,0,0,0,0,0,0,0,0,0,0,0,0],"id":21,"left_children":[1,3,-1,5,7,-1,-1,9,-1,-1,11,-1,-1],"loss_changes":[1.942773E1,8.70929E0,0E0,4.7066462E-1,8.336842E0,0E0,0E0,6.8580513E0,0E0,0E0,4.112816E-1,0E0,0E0],"parents":[2147483647,0,0,1,1,3,3,4,4,7,7,10,10],"right_children":[2,4,-1,6,8,-1,-1,10,-1,-1,12,-1,-1],"split_conditions":[-8.7049043E-1,-1.3201009E-2,-5.29944E-2,6.5382415E-1,2.65295E0,-4.146461E-2,2.1031486E-2,-3.701804E-1,-3.5029158E-2,-2.7791923E-2,-1.0945814E0,6.612572E-2,2.4486838E-1],"split_indices":[3,95,0,76,10,0,0,9,0,0,115,0,0],"split_type":[0,0,0,0,0,0,0,0,0,0,0,0,0],"sum_hessian":[3.8126198E1,1.2581913E1,2.5544285E1,3.9836397E0,8.598273E0,2.9756668E0,1.0079732E0,6.8698835E0,1.7283895E0,1.0156134E0,5.85427E0,1.0788004E0,4.77547E0],"tree_param":{"num_deleted":"0","num_feature":"194","num_nodes":"13","size_leaf_vector":"1"}},{"base_weights":[-2.3121623E-2,-2.6614395E-1,1.3067992E0,-5.2990716E-2,3.4955359E-1,1.8289577E0,-3.3703476E-2,9.165539E-1,-4.53073E-2,2.373519E-1,4.0293496E-2,-3.7197378E-2,1.4968836E0,2.0566402E-1,6.6997157E-3],"categories":[],"categories_nodes":[],"categories_segments":[],"categories_sizes":[],"default_left":[0,0,0,0,0,0,0,0,0,0,0,0,0,0,0],"id":22,"left_children":[1,3,5,-1,7,9,-1,11,-1,-1,-1,-1,13,-1,-1],"loss_changes":[1.3952359E1,6.099875E0,6.3438635E0,0E0,5.660449E0,3.0970154E0,0E0,5.854772E0,0E0,0E0,0E0,0E0,3.9313622E0,0E0,0E0],"parents":[2147483647,0,0,1,1,2,2,4,4,5,5,7,7,12,12],"right_children":[2,4,6,-1,8,10,-1,12,-1,-1,-1,-1,14,-1,-1],"split_conditions":[6.3419515E-1,-2.513133E-1,3.500095E-1,-5.2990716E-2,-3.2767308E-1,8.851959E-1,-3.3703476E-2,-2.3110996E-1,-4.53073E-2,2.373519E-1,4.0293496E-2,-3.7197378E-2,5.608715E-1,2.0566402E-1,6.6997157E-3],"split_indices":[68,27,25,0,40,181,0,23,0,0,0,0,27,0,0],"split_type":[0,0,0,0,0,0,0,0,0,0,0,0,0,0,0],"sum_hessian":[4.1093273E1,3.542059E1,5.672682E0,2.4894983E1,1.0525607E1,4.2196927E0,1.4529889E0,6.0850186E0,4.440589E0,2.572781E0,1.6469116E0,2.001048E0,4.0839705E0,2.6199977E0,1.4639726E0],"tree_param":{"num_deleted":"0","num_feature":"194","num_nodes":"15","size_leaf_vector":"1"}},{"base_weights":[1.3032737E-2,-5.1994827E-2,4.031126E-1,1.4864349E0,3.9012946E-2,-3.512133E-2,2.2687743E0,-4.935995E-2,4.9526566E-1,2.5894475E-1,6.634158E-2,1.4256771E0,-4.6405293E-2,1.9158524E0,-2.986829E-2,2.1929125E-1,6.0596555E-2],"categories":[],"categories_nodes":[],"categories_segments":[],"categories_sizes":[],"default_left":[0,0,0,0,0,0,0,0,0,0,0,0,0,0,0,0,0],"id":23,"left_children":[1,-1,3,5,7,-1,9,-1,11,-1,-1,13,-1,15,-1,-1,-1],"loss_changes":[8.788535E0,0E0,9.562021E0,9.578312E0,4.9298706E0,0E0,5.566349E-1,0E0,1.0376327E1,0E0,0E0,5.449998E0,0E0,3.5089684E-1,0E0,0E0,0E0],"parents":[2147483647,0,0,2,2,3,3,4,4,6,6,8,8,11,11,13,13],"right_children":[2,-1,4,6,8,-1,10,-1,12,-1,-1,14,-1,16,-1,-1,-1],"split_conditions":[-4.784386E-1,-5.1994827E-2,-4.4218656E-1,-3.4479672E-1,-2.9487628E-1,-3.512133E-2,4.5479023E-1,-4.935995E-2,5.059438E-1,2.5894475E-1,6.634158E-2,-1.0296629E-1,-4.6405293E-2,1.4023137E-1,-2.986829E-2,2.1929125E-1,6.0596555E-2],"split_indices":[31,0,2,7,97,0,27,0,136,0,0,14,0,108,0,0,0],"split_type":[0,0,0,0,0,0,0,0,0,0,0,0,0,0,0,0,0],"sum_hessian":[4.0263714E1,1.6874506E1,2.3389208E1,5.1081624E0,1.8281046E1,1.6898714E0,3.4182909E0,8.396928E0,9.884117E0,2.338224E0,1.0800669E0,4.7708716E0,5.113246E0,3.6283944E0,1.1424773E0,2.4384937E0,1.1899005E0],"tree_param":{"num_deleted":"0","num_feature":"194","num_nodes":"17","size_leaf_vector":"1"}},{"base_weights":[1.7086988E-2,9.910805E-1,-5.3126182E-2,1.8308572E-1,2.0882564E0,1.3506135E-1,-2.4882396E-1,2.3877144E-1,2.1448473E-2,-4.75428E-2,5.6067135E-2],"categories":[],"categories_nodes":[],"categories_segments":[],"categories_sizes":[],"default_left":[0,0,0,0,0,0,0,0,0,0,0],"id":24,"left_children":[1,3,-1,5,7,-1,9,-1,-1,-1,-1],"loss_changes":[2.3329948E1,1.3560829E1,0E0,5.456295E0,3.1768093E0,0E0,1.7810569E0,0E0,0E0,0E0,0E0],"parents":[2147483647,0,0,1,1,3,3,4,4,6,6],"right_children":[2,4,-1,6,8,-1,10,-1,-1,-1,-1],"split_conditions":[-7.7291775E-1,-1.4019427E-1,-5.3126182E-2,-3.1859842E-1,2.0461388E-1,1.3506135E-1,2.1061828E0,2.3877144E-1,2.1448473E-2,-4.75428E-2,5.6067135E-2],"split_indices":[2,93,0,8,33,0,11,0,0,0,0],"split_type":[0,0,0,0,0,0,0,0,0,0,0],"sum_hessian":[4.169599E1,1.4728104E1,2.6967888E1,9.153816E0,5.574288E0,1.8974907E0,7.2563252E0,4.5696964E0,1.0045913E0,5.9917307E0,1.2645943E0],"tree_param":{"num_deleted":"0","num_feature":"194","num_nodes":"11","size_leaf_vector":"1"}},{"base_weights":[3.9984003E-2,-2.1304204E-1,1.7756064E0,-3.8725498E-1,1.2430792E0,2.2235289E-1,1.4026373E-2,7.825464E-2,-4.7225073E-1,-3.038754E-2,1.9833608E-1,-5.324241E-2,2.907986E-2,6.592843E-2,-3.84524E-2],"categories":[],"categories_nodes":[],"categories_segments":[],"categories_sizes":[],"default_left":[0,0,0,0,0,0,0,0,0,0,0,0,0,0,0],"id":25,"left_children":[1,3,5,7,9,-1,-1,-1,11,-1,-1,-1,13,-1,-1],"loss_changes":[1.8444313E1,9.815772E0,3.6006737E0,3.713038E0,5.377546E0,0E0,0E0,0E0,9.800019E-1,0E0,0E0,0E0,1.3937662E0,0E0,0E0],"parents":[2147483647,0,0,1,1,2,2,3,3,4,4,8,8,12,12],"right_children":[2,4,6,8,10,-1,-1,-1,12,-1,-1,-1,14,-1,-1],"split_conditions":[1.9355196E0,1.0030137E0,5.706106E-1,-6.1854476E-1,-4.0567395E-1,2.2235289E-1,1.4026373E-2,7.825464E-2,1.0322982E0,-3.038754E-2,1.9833608E-1,-5.324241E-2,-4.5007154E-1,6.592843E-2,-3.84524E-2],"split_indices":[114,171,22,36,11,0,0,0,29,0,0,0,40,0,0],"split_type":[0,0,0,0,0,0,0,0,0,0,0,0,0,0,0],"sum_hessian":[4.013792E1,3.57966E1,4.34132E0,3.262709E1,3.1695127E0,3.1255548E0,1.2157652E0,1.6541431E0,3.0972946E1,1.2166378E0,1.9528749E0,2.759837E1,3.3745775E0,1.1017904E0,2.272787E0],"tree_param":{"num_deleted":"0","num_feature":"194","num_nodes":"15","size_leaf_vector":"1"}},{"base_weights":[7.2254166E-2,-2.799164E-1,8.7140083E-1,-4.8277077E-1,5.8599466E-1,1.7389293E0,-1.6429493E-1,2.1689419E-2,-5.247677E-2,-4.0532988E-2,1.6697156E-1,2.2317731E0,-2.998775E-2,7.036111E-2,-4.520391E-2,5.7695396E-2,2.5728533E-1],"categories":[],"categories_nodes":[],"categories_segments":[],"categories_sizes":[],"default_left":[0,0,0,0,0,0,0,0,0,0,0,0,0,0,0,0,0],"id":26,"left_children":[1,3,5,7,9,11,13,-1,-1,-1,-1,15,-1,-1,-1,-1,-1],"loss_changes":[1.1235671E1,5.177707E0,1.123814E1,7.9333115E-1,6.84422E0,7.4213448E0,1.9338484E0,0E0,0E0,0E0,0E0,1.6368809E0,0E0,0E0,0E0,0E0,0E0],"parents":[2147483647,0,0,1,1,2,2,3,3,4,4,5,5,6,6,11,11],"right_children":[2,4,6,8,10,12,14,-1,-1,-1,-1,16,-1,-1,-1,-1,-1],"split_conditions":[7.2370315E-1,-4.4716235E-2,1.0439523E0,-1.7623643E0,5.3121644E-1,-1.2690836E-1,5.3161126E-1,2.1689419E-2,-5.247677E-2,-4.0532988E-2,1.6697156E-1,-5.3006694E-2,-2.998775E-2,7.036111E-2,-4.520391E-2,5.7695396E-2,2.5728533E-1],"split_indices":[105,20,113,93,131,43,112,0,0,0,0,51,0,0,0,0,0],"split_type":[0,0,0,0,0,0,0,0,0,0,0,0,0,0,0,0,0],"sum_hessian":[3.805596E1,2.6866205E1,1.1189757E1,2.2125422E1,4.7407846E0,5.7197413E0,5.4700155E0,1.0170438E0,2.1108377E1,2.8028681E0,1.9379168E0,4.5300407E0,1.1897006E0,1.0021182E0,4.4678974E0,1.2341002E0,3.2959406E0],"tree_param":{"num_deleted":"0","num_feature":"194","num_nodes":"17","size_leaf_vector":"1"}},{"base_weights":[2.3781808E-2,-1.519248E-1,1.4310219E0,-2.969224E-1,6.318877E-1,-3.102749E-2,2.1429124E0,-3.7968016E-1,9.770049E-2,1.8230419E-1,-4.2182993E-2,6.673681E-2,2.5157803E-1,-4.6647006E-1,4.974096E-1,1.27607705E-2,-4.9775967E-1,1.1317698E-1,-3.105312E-2,4.4230088E-3,-5.3184044E-2],"categories":[],"categories_nodes":[],"categories_segments":[],"categories_sizes":[],"default_left":[0,0,0,0,0,0,0,0,0,0,0,0,0,0,0,0,0,0,0,0,0],"id":27,"left_children":[1,3,5,7,9,-1,11,13,-1,-1,-1,-1,-1,15,17,-1,19,-1,-1,-1,-1],"loss_changes":[1.0675293E1,4.5636554E0,6.6034946E0,3.8683498E0,8.714816E0,0E0,2.615223E-1,2.6580606E0,0E0,0E0,0E0,0E0,0E0,6.121845E-1,2.0702589E0,0E0,5.4522514E-1,0E0,0E0,0E0,0E0],"parents":[2147483647,0,0,1,1,2,2,3,3,4,4,6,6,7,7,13,13,14,14,16,16],"right_children":[2,4,6,8,10,-1,12,14,-1,-1,-1,-1,-1,16,18,-1,20,-1,-1,-1,-1],"split_conditions":[1.6233816E0,1.1484194E0,3.903307E-1,2.4022932E0,-3.609395E-1,-3.102749E-2,-1.8798332E-1,1.0476625E0,9.770049E-2,1.8230419E-1,-4.2182993E-2,6.673681E-2,2.5157803E-1,-3.8480565E-1,-4.001346E-2,1.27607705E-2,-3.3805296E-1,1.1317698E-1,-3.105312E-2,4.4230088E-3,-5.3184044E-2],"split_indices":[117,2,171,4,26,0,70,69,0,0,0,0,0,9,51,0,14,0,0,0,0],"split_type":[0,0,0,0,0,0,0,0,0,0,0,0,0,0,0,0,0,0,0,0,0],"sum_hessian":[4.1294857E1,3.7504166E1,3.7906926E0,3.2173557E1,5.3306093E0,1.2637331E0,2.5269594E0,3.087011E1,1.3034451E0,2.159425E0,3.1711843E0,1.0725193E0,1.4544401E0,2.8516502E1,2.3536074E0,1.2727758E0,2.7243727E1,1.0939093E0,1.2596982E0,1.5941408E0,2.5649586E1],"tree_param":{"num_deleted":"0","num_feature":"194","num_nodes":"21","size_leaf_vector":"1"}},{"base_weights":[-4.591195E-2,1.8869437E0,-3.6686E-1,2.1942542E-1,2.1094173E-2,1.2032087E-1,-4.4866198E-1,-5.0333136E-1,2.7144656E-2,1.6978813E-2,-5.332917E-2],"categories":[],"categories_nodes":[],"categories_segments":[],"categories_sizes":[],"default_left":[0,0,0,0,0,0,0,0,0,0,0],"id":28,"left_children":[1,3,5,-1,-1,-1,7,9,-1,-1,-1],"loss_changes":[2.5541689E1,2.5589828E0,5.0594916E0,0E0,0E0,0E0,1.4820671E0,7.3820305E-1,0E0,0E0,0E0],"parents":[2147483647,0,0,1,1,2,2,6,6,7,7],"right_children":[2,4,6,-1,-1,-1,8,10,-1,-1,-1],"split_conditions":[-1.2728702E0,2.8349826E0,-1.5340706E0,2.1942542E-1,2.1094173E-2,1.2032087E-1,1.805497E0,-7.805175E-1,2.7144656E-2,1.6978813E-2,-5.332917E-2],"split_indices":[95,6,104,0,0,0,49,2,0,0,0],"split_type":[0,0,0,0,0,0,0,0,0,0,0],"sum_hessian":[3.9057373E1,4.8670573E0,3.4190315E1,3.8516097E0,1.0154477E0,1.0142612E0,3.3176052E1,3.1114897E1,2.0611558E0,1.1270194E0,2.9987879E1],"tree_param":{"num_deleted":"0","num_feature":"194","num_nodes":"11","size_leaf_vector":"1"}},{"base_weights":[-1.6613608E-2,7.4294335E-1,-5.300961E-2,-4.4815455E-2,1.1319659E0,1.5297478E0,-1.8109548E-1,1.8039162E0,-3.0786473E-2,-3.8027707E-2,2.173611E-2,2.0851007E0,-2.8285647E-2,5.5004127E-2,2.2836848E-1],"categories":[],"categories_nodes":[],"categories_segments":[],"categories_sizes":[],"default_left":[0,0,0,0,0,0,0,0,0,0,0,0,0,0,0],"id":29,"left_children":[1,3,-1,-1,5,7,9,11,-1,-1,-1,13,-1,-1,-1],"loss_changes":[1.7297634E1,8.800605E0,0E0,0E0,7.471987E0,5.935215E0,4.0781438E-1,6.1275177E0,0E0,0E0,0E0,1.3156319E0,0E0,0E0,0E0],"parents":[2147483647,0,0,1,1,4,4,5,5,6,6,7,7,11,11],"right_children":[2,4,-1,-1,6,8,10,12,-1,-1,-1,14,-1,-1,-1],"split_conditions":[-5.275684E-1,-1.0442033E0,-5.300961E-2,-4.4815455E-2,-1.6856319E-1,1.2804407E0,-4.9624193E-2,4.9983656E-1,-3.0786473E-2,-3.8027707E-2,2.173611E-2,-3.2844812E-1,-2.8285647E-2,5.5004127E-2,2.2836848E-1],"split_indices":[31,108,0,0,18,78,37,171,0,0,0,16,0,0,0],"split_type":[0,0,0,0,0,0,0,0,0,0,0,0,0,0,0],"sum_hessian":[4.2340954E1,1.6898045E1,2.5442907E1,4.1228437E0,1.2775202E1,9.678231E0,3.0969703E0,8.437682E0,1.2405492E0,2.0952272E0,1.0017431E0,7.4364505E0,1.0012318E0,1.2836465E0,6.152804E0],"tree_param":{"num_deleted":"0","num_feature":"194","num_nodes":"15","size_leaf_vector":"1"}},{"base_weights":[-7.1600966E-2,-3.9519432E-1,7.112682E-1,-5.2731592E-2,3.313841E-1,1.2724152E0,-4.324509E-2,1.5375866E-1,-4.1303124E-2,1.6754708E0,-3.822197E-3,1.9879036E-1,1.51412925E-2],"categories":[],"categories_nodes":[],"categories_segments":[],"categories_sizes":[],"default_left":[0,0,0,0,0,0,0,0,0,0,0,0,0],"id":30,"left_children":[1,3,5,-1,7,9,-1,-1,-1,11,-1,-1,-1],"loss_changes":[1.0426731E1,2.956645E0,8.296572E0,0E0,5.1900926E0,4.475396E0,0E0,0E0,0E0,2.7507381E0,0E0,0E0,0E0],"parents":[2147483647,0,0,1,1,2,2,4,4,5,5,9,9],"right_children":[2,4,6,-1,8,10,-1,-1,-1,12,-1,-1,-1],"split_conditions":[6.923085E-1,7.7322924E-1,1.3513297E-1,-5.2731592E-2,-7.641777E-1,-3.4597296E-2,-4.324509E-2,1.5375866E-1,-4.1303124E-2,7.571293E-1,-3.822197E-3,1.9879036E-1,1.51412925E-2],"split_indices":[174,30,63,0,53,39,0,0,0,3,0,0,0],"split_type":[0,0,0,0,0,0,0,0,0,0,0,0,0],"sum_hessian":[3.9048912E1,2.7979136E1,1.10697775E1,2.3906252E1,4.0728836E0,7.350736E0,3.7190418E0,1.1477112E0,2.9251723E0,5.4089704E0,1.9417657E0,4.236198E0,1.1727724E0],"tree_param":{"num_deleted":"0","num_feature":"194","num_nodes":"13","size_leaf_vector":"1"}},{"base_weights":[8.715987E-3,9.081381E-1,-5.271546E-2,-2.2849369E-1,1.2800947E0,1.9343073E-2,-4.014434E-2,1.548223E0,-3.34389E-2,-2.7554378E-2,1.7697917E0,8.0200684E-1,2.0946348E-1,-2.9909983E-2,1.3703711E-1],"categories":[],"categories_nodes":[],"categories_segments":[],"categories_sizes":[],"default_left":[0,0,0,0,0,0,0,0,0,0,0,0,0,0,0],"id":31,"left_children":[1,3,-1,5,7,-1,-1,9,-1,-1,11,13,-1,-1,-1],"loss_changes":[2.0344398E1,6.9537296E0,0E0,4.2304832E-1,5.722149E0,0E0,0E0,4.725706E0,0E0,0E0,1.302433E0,2.9159763E0,0E0,0E0,0E0],"parents":[2147483647,0,0,1,1,3,3,4,4,7,7,10,10,11,11],"right_children":[2,4,-1,6,8,-1,-1,10,-1,-1,12,14,-1,-1,-1],"split_conditions":[-8.7049043E-1,-5.9801275E-1,-5.271546E-2,-3.3398548E-1,-2.7801105E-1,1.9343073E-2,-4.014434E-2,-7.544112E-1,-3.34389E-2,-2.7554378E-2,-6.160907E-1,2.4767022E-1,2.0946348E-1,-2.9909983E-2,1.3703711E-1],"split_indices":[3,1,0,38,25,0,0,4,0,0,143,35,0,0,0],"split_type":[0,0,0,0,0,0,0,0,0,0,0,0,0,0,0],"sum_hessian":[4.021732E1,1.4755883E1,2.5461437E1,3.7332985E0,1.1022585E1,1.050965E0,2.6823335E0,9.487905E0,1.5346797E0,1.0014237E0,8.486482E0,3.004441E0,5.48204E0,1.1841364E0,1.8203046E0],"tree_param":{"num_deleted":"0","num_feature":"194","num_nodes":"15","size_leaf_vector":"1"}},{"base_weights":[-1.4835412E-2,-2.5284272E-1,1.0777355E0,-5.26686E-2,3.9953947E-1,-1.3785712E-1,1.7514323E0,-2.283033E-1,1.4506537E0,-3.4991857E-2,2.0846909E-2,2.2412299E-1,1.381092E-2,-4.7177084E-2,6.787499E-2,1.7090313E-1,5.1852454E-2],"categories":[],"categories_nodes":[],"categories_segments":[],"categories_sizes":[],"default_left":[0,0,0,0,0,0,0,0,0,0,0,0,0,0,0,0,0],"id":32,"left_children":[1,3,5,-1,7,9,11,13,15,-1,-1,-1,-1,-1,-1,-1,-1],"loss_changes":[1.10093775E1,6.4120517E0,6.445467E0,0E0,7.4795456E0,3.3942702E-1,3.5997887E0,2.0086012E0,1.2212086E-1,0E0,0E0,0E0,0E0,0E0,0E0,0E0,0E0],"parents":[2147483647,0,0,1,1,2,2,4,4,5,5,6,6,7,7,8,8],"right_children":[2,4,6,-1,8,10,12,14,16,-1,-1,-1,-1,-1,-1,-1,-1],"split_conditions":[2.813387E-1,-2.513133E-1,3.9894704E-2,-5.26686E-2,3.001176E-1,-3.803437E-1,8.286632E-1,1.1185343E0,-1.7254348E-1,-3.4991857E-2,2.0846909E-2,2.2412299E-1,1.381092E-2,-4.7177084E-2,6.787499E-2,1.7090313E-1,5.1852454E-2],"split_indices":[68,27,51,0,95,9,26,77,17,0,0,0,0,0,0,0,0],"split_type":[0,0,0,0,0,0,0,0,0,0,0,0,0,0,0,0,0],"sum_hessian":[4.028936E1,3.37137E1,6.575663E0,2.3881779E1,9.83192E0,2.628418E0,3.9472451E0,6.6453643E0,3.186555E0,1.6237783E0,1.0046396E0,2.7294083E0,1.2178367E0,5.61744E0,1.0279243E0,1.8423908E0,1.3441643E0],"tree_param":{"num_deleted":"0","num_feature":"194","num_nodes":"17","size_leaf_vector":"1"}},{"base_weights":[8.590794E-3,-5.161835E-2,3.690284E-1,1.2783263E0,3.211842E-2,-3.440923E-2,1.8585893E0,1.4384173E-1,-1.4406288E-1,5.027712E-2,2.2217894E-1,9.30772E-2,-3.3441195E-1,-5.131631E-2,5.2129304E-1,1.0983793E-1,-2.9370686E-2],"categories":[],"categories_nodes":[],"categories_segments":[],"categories_sizes":[],"default_left":[0,0,0,0,0,0,0,0,0,0,0,0,0,0,0,0,0],"id":33,"left_children":[1,-1,3,5,7,-1,9,-1,11,-1,-1,-1,13,-1,15,-1,-1],"loss_changes":[8.008296E0,0E0,7.643914E0,6.999858E0,4.9963517E0,0E0,1.4103508E0,0E0,4.011627E0,0E0,0E0,0E0,2.7302818E0,0E0,1.864455E0,0E0,0E0],"parents":[2147483647,0,0,2,2,3,3,4,4,6,6,8,8,12,12,14,14],"right_children":[2,-1,4,6,8,-1,10,-1,12,-1,-1,-1,14,-1,16,-1,-1],"split_conditions":[-4.784386E-1,-5.161835E-2,-4.4218656E-1,-4.9273476E-1,-4.6516025E-1,-3.440923E-2,-3.8108736E-1,1.4384173E-1,-1.0685812E0,5.027712E-2,2.2217894E-1,9.30772E-2,1.2962717E0,-5.131631E-2,-3.409399E-1,1.0983793E-1,-2.9370686E-2],"split_indices":[31,0,2,69,31,0,9,0,110,0,0,0,33,0,7,0,0],"split_type":[0,0,0,0,0,0,0,0,0,0,0,0,0,0,0,0,0],"sum_hessian":[4.033162E1,1.6246151E1,2.4085468E1,5.7560368E0,1.8329432E1,1.6235601E0,4.132477E0,1.2430279E0,1.7086405E1,1.376883E0,2.7555935E0,1.9854491E0,1.5100955E1,1.2822684E1,2.2782707E0,1.130254E0,1.1480166E0],"tree_param":{"num_deleted":"0","num_feature":"194","num_nodes":"17","size_leaf_vector":"1"}},{"base_weights":[3.1516846E-2,8.4756875E-1,-5.263818E-2,1.3229748E0,-1.6075835E-1,1.6225024E0,-3.439287E-2,-4.552087E-2,7.005411E-2,2.0460846E0,1.8193261E-1,2.2724596E-1,5.2383583E-2,6.9006994E-2,-3.2254603E-2],"categories":[],"categories_nodes":[],"categories_segments":[],"categories_sizes":[],"default_left":[0,0,0,0,0,0,0,0,0,0,0,0,0,0,0],"id":34,"left_children":[1,3,-1,5,7,9,-1,-1,-1,11,13,-1,-1,-1,-1],"loss_changes":[1.9246784E1,8.434368E0,0E0,6.43165E0,1.938726E0,5.819502E0,0E0,0E0,0E0,1.4781151E0,1.0949881E0,0E0,0E0,0E0,0E0],"parents":[2147483647,0,0,1,1,3,3,4,4,5,5,9,9,10,10],"right_children":[2,4,-1,6,8,10,-1,-1,-1,12,14,-1,-1,-1,-1],"split_conditions":[-7.7291775E-1,4.468508E-1,-5.263818E-2,1.2385546E0,-1.6337171E-1,-2.7647522E-1,-3.439287E-2,-4.552087E-2,7.005411E-2,3.0064943E0,-3.693417E-2,2.2724596E-1,5.2383583E-2,6.9006994E-2,-3.2254603E-2],"split_indices":[2,9,0,79,38,38,0,0,0,86,35,0,0,0,0],"split_type":[0,0,0,0,0,0,0,0,0,0,0,0,0,0,0],"sum_hessian":[4.0295197E1,1.615121E1,2.4143984E1,1.0764102E1,5.387108E0,9.147089E0,1.6170132E0,4.366E0,1.0211077E0,6.7438207E0,2.4032683E0,5.4417434E0,1.3020775E0,1.0140135E0,1.3892548E0],"tree_param":{"num_deleted":"0","num_feature":"194","num_nodes":"15","size_leaf_vector":"1"}},{"base_weights":[1.3683864E-2,-2.849124E-1,9.471434E-1,-4.0088987E-1,1.073999E-1,1.4528664E0,-1.7373954E-1,-4.949849E-1,6.33058E-2,9.625609E-3,1.7560629E0,-3.737851E-2,2.087768E-2,-5.2906472E-2,1.6260581E-2,2.1759339E-2,2.0389116E-1],"categories":[],"categories_nodes":[],"categories_segments":[],"categories_sizes":[],"default_left":[0,0,0,0,0,0,0,0,0,0,0,0,0,0,0,0,0],"id":35,"left_children":[1,3,5,7,-1,9,11,13,-1,-1,15,-1,-1,-1,-1,-1,-1],"loss_changes":[1.1735239E1,5.4634914E0,6.034642E0,3.2467527E0,0E0,2.7661066E0,3.8906348E-1,7.1795034E-1,0E0,0E0,2.0691032E0,0E0,0E0,0E0,0E0,0E0,0E0],"parents":[2147483647,0,0,1,1,2,2,3,3,5,5,6,6,7,7,10,10],"right_children":[2,4,6,8,-1,10,12,14,-1,-1,16,-1,-1,-1,-1,-1,-1],"split_conditions":[3.1029406E-1,2.3626955E0,1.5033393E-2,1.6961696E0,1.073999E-1,-3.0523035E-1,1.2543024E-1,1.637072E0,6.33058E-2,9.625609E-3,-3.6846864E-1,-3.737851E-2,2.087768E-2,-5.2906472E-2,1.6260581E-2,2.1759339E-2,2.0389116E-1],"split_indices":[31,2,48,29,0,38,99,101,0,0,26,0,0,0,0,0,0],"split_type":[0,0,0,0,0,0,0,0,0,0,0,0,0,0,0,0,0],"sum_hessian":[4.0134747E1,3.093424E1,9.200508E0,2.9151289E1,1.78295E0,6.1359105E0,3.0645976E0,2.719744E1,1.9538509E0,1.361507E0,4.7744036E0,2.027235E0,1.0373625E0,2.6043192E1,1.154247E0,1.0162288E0,3.7581747E0],"tree_param":{"num_deleted":"0","num_feature":"194","num_nodes":"17","size_leaf_vector":"1"}},{"base_weights":[4.973399E-3,-2.367767E-1,1.0402676E0,-4.1802397E-1,4.741524E-1,1.9116571E0,-4.05106E-2,3.8078982E-2,-4.8661408E-1,1.8731315E-1,-2.815654E-1,2.0918977E-2,2.2831789E-1,-5.245487E-2,1.9973468E-2,2.0768339E-2,-4.3458533E-2],"categories":[],"categories_nodes":[],"categories_segments":[],"categories_sizes":[],"default_left":[0,0,0,0,0,0,0,0,0,0,0,0,0,0,0,0,0],"id":36,"left_children":[1,3,5,7,9,11,-1,-1,13,-1,15,-1,-1,-1,-1,-1,-1],"loss_changes":[1.0270685E1,4.487082E0,1.0557431E1,1.6676254E0,8.171637E0,2.6980572E0,0E0,0E0,7.648978E-1,0E0,5.0678957E-1,0E0,0E0,0E0,0E0,0E0,0E0],"parents":[2147483647,0,0,1,1,2,2,3,3,4,4,5,5,8,8,10,10],"right_children":[2,4,6,8,10,12,-1,-1,14,-1,16,-1,-1,-1,-1,-1,-1],"split_conditions":[5.189226E-1,7.571293E-1,-1.8201861E-1,-2.3204702E-1,-6.2983537E-1,-1.1757957E-1,-4.05106E-2,3.8078982E-2,2.7652678E0,1.8731315E-1,-4.3274075E-1,2.0918977E-2,2.2831789E-1,-5.245487E-2,1.9973468E-2,2.0768339E-2,-4.3458533E-2],"split_indices":[19,3,37,15,19,123,0,0,5,0,25,0,0,0,0,0,0],"split_type":[0,0,0,0,0,0,0,0,0,0,0,0,0,0,0,0,0],"sum_hessian":[3.9052246E1,3.228477E1,6.767476E0,2.6054361E1,6.2304068E0,4.020803E0,2.7466733E0,1.7003287E0,2.4354034E1,1.6665988E0,4.563808E0,1.0002593E0,3.0205436E0,2.3301874E1,1.0521588E0,1.0022131E0,3.561595E0],"tree_param":{"num_deleted":"0","num_feature":"194","num_nodes":"17","size_leaf_vector":"1"}},{"base_weights":[8.397609E-3,-5.1588126E-2,3.694136E-1,1.5843536E0,1.2537606E-1,1.9357149E-2,2.0214903E-1,1.0754925E0,-1.7247543E-1,-3.48834E-2,1.8755318E-1,-4.3497625E-1,5.352656E-1,1.8900968E-2,-5.0800104E-2,-1.7169139E-1,1.6653612E-1,-3.7268404E-2,2.1655453E-2],"categories":[],"categories_nodes":[],"categories_segments":[],"categories_sizes":[],"default_left":[0,0,0,0,0,0,0,0,0,0,0,0,0,0,0,0,0,0,0],"id":37,"left_children":[1,-1,3,5,7,-1,-1,9,11,-1,-1,13,15,-1,-1,17,-1,-1,-1],"loss_changes":[7.716463E0,0E0,6.9557314E0,2.0102825E0,6.1792793E0,0E0,0E0,6.5719895E0,3.3886662E0,0E0,0E0,6.857662E-1,4.315813E0,0E0,0E0,3.9358705E-1,0E0,0E0,0E0],"parents":[2147483647,0,0,2,2,3,3,4,4,7,7,8,8,11,11,12,12,15,15],"right_children":[2,-1,4,6,8,-1,-1,10,12,-1,-1,14,16,-1,-1,18,-1,-1,-1],"split_conditions":[-5.5303526E-1,-5.1588126E-2,-4.9662626E-1,-6.9326323E-1,-2.0417264E-1,1.9357149E-2,2.0214903E-1,-5.456184E-1,2.5857374E-1,-3.48834E-2,1.8755318E-1,-9.976121E-1,-3.1471875E-1,1.8900968E-2,-5.0800104E-2,-4.8024338E-1,1.6653612E-1,-3.7268404E-2,2.1655453E-2],"split_indices":[3,0,27,71,125,0,0,75,68,0,0,51,8,0,0,44,0,0,0],"split_type":[0,0,0,0,0,0,0,0,0,0,0,0,0,0,0,0,0,0,0],"sum_hessian":[3.8762077E1,1.56319275E1,2.3130148E1,2.9502232E0,2.0179926E1,1.0505716E0,1.8996516E0,4.1932E0,1.5986725E1,1.7110181E0,2.4821823E0,1.1942616E1,4.044109E0,1.0848067E0,1.0857809E1,3.009513E0,1.0345958E0,2.0093608E0,1.000152E0],"tree_param":{"num_deleted":"0","num_feature":"194","num_nodes":"19","size_leaf_vector":"1"}},{"base_weights":[-8.2580745E-3,9.977566E-1,-4.6148312E-1,-3.397271E-2,1.8196887E0,-5.2880418E-2,6.524515E-2,8.8196605E-2,-4.4688042E-2,2.1929853E-1,9.799463E-3],"categories":[],"categories_nodes":[],"categories_segments":[],"categories_sizes":[],"default_left":[0,0,0,0,0,0,0,0,0,0,0],"id":38,"left_children":[1,3,5,7,9,-1,-1,-1,-1,-1,-1],"loss_changes":[1.9035692E1,1.1060141E1,2.5025191E0,2.9403517E0,4.436365E0,0E0,0E0,0E0,0E0,0E0,0E0],"parents":[2147483647,0,0,1,1,2,2,3,3,4,4],"right_children":[2,4,6,8,10,-1,-1,-1,-1,-1,-1],"split_conditions":[-4.894167E-1,-8.741581E-1,1.3155499E0,-6.332808E-1,-6.005746E-1,-5.2880418E-2,6.524515E-2,8.8196605E-2,-4.4688042E-2,2.1929853E-1,9.799463E-3],"split_indices":[28,3,36,17,70,0,0,0,0,0,0],"split_type":[0,0,0,0,0,0,0,0,0,0,0],"sum_hessian":[3.973956E1,1.19695425E1,2.7770018E1,5.7324977E0,6.2370443E0,2.668272E1,1.0872983E0,1.4282569E0,4.304241E0,4.900734E0,1.3363106E0],"tree_param":{"num_deleted":"0","num_feature":"194","num_nodes":"11","size_leaf_vector":"1"}},{"base_weights":[1.7118575E-2,1.0857384E0,-4.2541268E-1,1.4492532E0,-3.7279475E-2,-5.2924443E-2,1.1117499E-1,1.2600445E-3,1.7637141E0,1.954377E-2,1.9696888E-1],"categories":[],"categories_nodes":[],"categories_segments":[],"categories_sizes":[],"default_left":[0,0,0,0,0,0,0,0,0,0,0],"id":39,"left_children":[1,3,5,7,-1,-1,-1,-1,9,-1,-1],"loss_changes":[1.8775692E1,6.7024603E0,5.0740204E0,4.273323E0,0E0,0E0,0E0,0E0,2.1325722E0,0E0,0E0],"parents":[2147483647,0,0,1,1,2,2,3,3,8,8],"right_children":[2,4,6,8,-1,-1,-1,-1,10,-1,-1],"split_conditions":[-8.816971E-1,6.2291276E-1,1.915276E0,-4.04486E-1,-3.7279475E-2,-5.2924443E-2,1.1117499E-1,1.2600445E-3,-7.1626127E-1,1.954377E-2,1.9696888E-1],"split_indices":[3,76,96,39,0,0,0,0,0,0,0],"split_type":[0,0,0,0,0,0,0,0,0,0,0],"sum_hessian":[3.772678E1,1.0622414E1,2.7104368E1,8.508241E0,2.114173E0,2.6003586E1,1.100781E0,1.7146633E0,6.7935777E0,1.0149171E0,5.7786603E0],"tree_param":{"num_deleted":"0","num_feature":"194","num_nodes":"11","size_leaf_vector":"1"}},{"base_weights":[-7.429847E-2,-3.1708863E-1,7.681006E-1,-5.2640747E-2,3.6796755E-1,-1.1360757E-1,1.7153834E-1,-4.3623745E-2,1.2451563E0,6.981527E-2,-4.3445602E-2,2.0146742E-2,1.5291373E-1],"categories":[],"categories_nodes":[],"categories_segments":[],"categories_sizes":[],"default_left":[0,0,0,0,0,0,0,0,0,0,0,0,0],"id":40,"left_children":[1,3,5,-1,7,9,-1,-1,11,-1,-1,-1,-1],"loss_changes":[8.394471E0,4.731327E0,7.886035E0,0E0,6.182863E0,1.7897663E0,0E0,0E0,9.021468E-1,0E0,0E0,0E0,0E0],"parents":[2147483647,0,0,1,1,2,2,4,4,5,5,8,8],"right_children":[2,4,6,-1,8,10,-1,-1,12,-1,-1,-1,-1],"split_conditions":[1.263981E0,7.4050397E-1,-3.9707744E-1,-5.2640747E-2,6.632533E-1,-7.3755944E-1,1.7153834E-1,-4.3623745E-2,4.4349223E-2,6.981527E-2,-4.3445602E-2,2.0146742E-2,1.5291373E-1],"split_indices":[1,100,11,0,170,73,0,0,109,0,0,0,0],"split_type":[0,0,0,0,0,0,0,0,0,0,0,0,0],"sum_hessian":[3.885267E1,3.0644205E1,8.208463E0,2.3649645E1,6.994561E0,4.707191E0,3.5012715E0,3.9113393E0,3.083222E0,1.0003372E0,3.7068539E0,1.0251231E0,2.0580986E0],"tree_param":{"num_deleted":"0","num_feature":"194","num_nodes":"13","size_leaf_vector":"1"}},{"base_weights":[7.173264E-2,9.409918E-1,-5.2382197E-2,-4.0929284E-2,1.2409192E0,1.4746544E0,-3.4223642E-2,2.5058773E-1,1.7003825E0,-2.9666144E-2,7.0453376E-2,4.8614856E-2,1.8315671E-1],"categories":[],"categories_nodes":[],"categories_segments":[],"categories_sizes":[],"default_left":[0,0,0,0,0,0,0,0,0,0,0,0,0],"id":41,"left_children":[1,3,-1,-1,5,7,-1,9,11,-1,-1,-1,-1],"loss_changes":[2.1840738E1,7.442623E0,0E0,0E0,5.7811317E0,3.0589943E0,0E0,9.882238E-1,7.78368E-1,0E0,0E0,0E0,0E0],"parents":[2147483647,0,0,1,1,4,4,5,5,7,7,8,8],"right_children":[2,4,-1,-1,6,8,-1,10,12,-1,-1,-1,-1],"split_conditions":[-8.7049043E-1,-6.0112906E-1,-5.2382197E-2,-4.0929284E-2,-2.7801105E-1,-1.008501E0,-3.4223642E-2,-6.882771E-1,-1.652707E0,-2.9666144E-2,7.0453376E-2,4.8614856E-2,1.8315671E-1],"split_indices":[3,1,0,0,25,21,0,105,129,0,0,0,0],"split_type":[0,0,0,0,0,0,0,0,0,0,0,0,0],"sum_hessian":[4.023659E1,1.6123312E1,2.4113281E1,2.8641512E0,1.3259161E1,1.1613144E1,1.6460166E0,2.1366665E0,9.476478E0,1.1258703E0,1.0107962E0,1.3828416E0,8.0936365E0],"tree_param":{"num_deleted":"0","num_feature":"194","num_nodes":"13","size_leaf_vector":"1"}},{"base_weights":[-7.1075045E-2,7.109505E-1,-3.475155E-1,-2.4029559E-1,1.249467E0,-4.3233028E-1,6.1383255E-2,1.9767864E-2,-4.0492263E-2,-3.2525778E-2,1.6772996E0,-4.958479E-1,6.0084075E-2,1.8943101E-1,5.241386E-2,1.9710192E-2,-5.2973587E-2],"categories":[],"categories_nodes":[],"categories_segments":[],"categories_sizes":[],"default_left":[0,0,0,0,0,0,0,0,0,0,0,0,0,0,0,0,0],"id":42,"left_children":[1,3,5,7,9,11,-1,-1,-1,-1,13,15,-1,-1,-1,-1,-1],"loss_changes":[9.260436E0,6.046462E0,2.8318052E0,4.3287972E-1,5.4797506E0,2.2345548E0,0E0,0E0,0E0,0E0,4.8897934E-1,7.701311E-1,0E0,0E0,0E0,0E0,0E0],"parents":[2147483647,0,0,1,1,2,2,3,3,4,4,5,5,10,10,11,11],"right_children":[2,4,6,8,10,12,-1,-1,-1,-1,14,16,-1,-1,-1,-1,-1],"split_conditions":[-2.959848E-1,-4.0712017E-1,1.5115193E0,-4.1051602E-1,-4.221363E-1,1.9092704E0,6.1383255E-2,1.9767864E-2,-4.0492263E-2,-3.2525778E-2,8.286632E-1,-1.4091094E0,6.0084075E-2,1.8943101E-1,5.241386E-2,1.9710192E-2,-5.2973587E-2],"split_indices":[14,27,131,16,20,34,0,0,0,0,26,118,0,0,0,0,0],"split_type":[0,0,0,0,0,0,0,0,0,0,0,0,0,0,0,0,0],"sum_hessian":[4.069315E1,1.0217355E1,3.0475794E1,3.89353E0,6.323825E0,2.8510727E1,1.9650664E0,1.0088406E0,2.8846893E0,1.4022634E0,4.9215612E0,2.7349403E1,1.1613243E0,3.6011577E0,1.3204037E0,1.05058E0,2.6298822E1],"tree_param":{"num_deleted":"0","num_feature":"194","num_nodes":"17","size_leaf_vector":"1"}},{"base_weights":[-2.4268152E-2,-5.117318E-2,3.0957684E-1,1.1971983E0,-3.0305492E-2,-3.0612037E-2,1.6088845E0,-2.0592074E-1,8.402199E-1,1.9955884E-1,1.4407495E-2,7.816975E-2,-3.7178153E-1,1.167077E-1,1.5091739E-2,6.4457126E-2,-5.079267E-2],"categories":[],"categories_nodes":[],"categories_segments":[],"categories_sizes":[],"default_left":[0,0,0,0,0,0,0,0,0,0,0,0,0,0,0,0,0],"id":43,"left_children":[1,-1,3,5,7,-1,9,11,13,-1,-1,-1,15,-1,-1,-1,-1],"loss_changes":[6.3652554E0,0E0,7.0535383E0,4.493763E0,2.8934624E0,0E0,2.677909E0,2.8477907E0,5.412483E-1,0E0,0E0,0E0,2.270661E0,0E0,0E0,0E0,0E0],"parents":[2147483647,0,0,2,2,3,3,4,4,6,6,7,7,8,8,12,12],"right_children":[2,-1,4,6,8,-1,10,12,14,-1,-1,-1,16,-1,-1,-1,-1],"split_conditions":[-5.60617E-1,-5.117318E-2,-4.982909E-1,-2.8827587E-1,1.5135782E0,-3.0612037E-2,-2.8030923E-1,-1.0685812E0,6.406282E-1,1.9955884E-1,1.4407495E-2,7.816975E-2,-3.182562E-1,1.167077E-1,1.5091739E-2,6.4457126E-2,-5.079267E-2],"split_indices":[1,0,1,124,75,0,38,110,48,0,0,0,14,0,0,0,0],"split_type":[0,0,0,0,0,0,0,0,0,0,0,0,0,0,0,0,0],"sum_hessian":[3.7140205E1,1.48801365E1,2.2260069E1,5.465147E0,1.6794922E1,1.2300186E0,4.2351284E0,1.4610857E1,2.1840656E0,3.063914E0,1.1712145E0,1.5670263E0,1.3043831E1,1.0113642E0,1.1727014E0,1.099723E0,1.1944108E1],"tree_param":{"num_deleted":"0","num_feature":"194","num_nodes":"17","size_leaf_vector":"1"}},{"base_weights":[-9.523993E-3,7.3226553E-1,-5.224073E-2,-1.115792E-1,1.3712157E0,6.972807E-2,-4.6393152E-2,1.6796582E0,9.955127E-4,5.234147E-2,1.8348335E-1],"categories":[],"categories_nodes":[],"categories_segments":[],"categories_sizes":[],"default_left":[0,0,0,0,0,0,0,0,0,0,0],"id":44,"left_children":[1,3,-1,5,7,-1,-1,9,-1,-1,-1],"loss_changes":[1.5104576E1,8.9062605E0,0E0,2.580825E0,3.8940315E0,0E0,0E0,4.0099144E-1,0E0,0E0,0E0],"parents":[2147483647,0,0,1,1,3,3,4,4,7,7],"right_children":[2,4,-1,6,8,-1,-1,10,-1,-1,-1],"split_conditions":[-7.7291775E-1,-5.0435466E-1,-5.224073E-2,-3.1859842E-1,7.4034345E-1,6.972807E-2,-4.6393152E-2,-2.6885378E-1,9.955127E-4,5.234147E-2,1.8348335E-1],"split_indices":[2,93,0,8,47,0,0,18,0,0,0],"split_type":[0,0,0,0,0,0,0,0,0,0,0],"sum_hessian":[3.769622E1,1.5234553E1,2.2461666E1,6.920371E0,8.314182E0,1.8028406E0,5.117531E0,6.5876207E0,1.7265612E0,1.2969353E0,5.2906857E0],"tree_param":{"num_deleted":"0","num_feature":"194","num_nodes":"11","size_leaf_vector":"1"}},{"base_weights":[-7.516163E-2,-2.7455175E-1,1.3082994E0,-4.0413406E-1,8.3882254E-1,1.7299934E-1,9.192389E-3,-5.260409E-2,4.8292894E-2,1.5199281E-1,-3.1279538E-2,8.126277E-1,-4.4498846E-2,-3.0490754E-2,1.6405007E-1],"categories":[],"categories_nodes":[],"categories_segments":[],"categories_sizes":[],"default_left":[0,0,0,0,0,0,0,0,0,0,0,0,0,0,0],"id":45,"left_children":[1,3,5,7,9,-1,-1,-1,11,-1,-1,13,-1,-1,-1],"loss_changes":[1.0907534E1,5.280246E0,2.4007702E0,1.7546692E0,3.5311306E0,0E0,0E0,0E0,3.2160919E0,0E0,0E0,3.5749524E0,0E0,0E0,0E0],"parents":[2147483647,0,0,1,1,2,2,3,3,4,4,8,8,11,11],"right_children":[2,4,6,8,10,-1,-1,-1,12,-1,-1,14,-1,-1,-1],"split_conditions":[2.052329E0,1.0539048E0,-5.5368906E-1,7.1802497E-1,7.9317056E-2,1.7299934E-1,9.192389E-3,-5.260409E-2,-1.2598912E-2,1.5199281E-1,-3.1279538E-2,-5.277626E-1,-4.4498846E-2,-3.0490754E-2,1.6405007E-1],"split_indices":[114,171,48,102,49,0,0,0,108,0,0,42,0,0,0],"split_type":[0,0,0,0,0,0,0,0,0,0,0,0,0,0,0],"sum_hessian":[3.7239616E1,3.3249157E1,3.9904583E0,3.035343E1,2.8957264E0,2.64963E0,1.3408282E0,2.3782503E1,6.5709267E0,1.6186076E0,1.2771188E0,2.323419E0,4.2475076E0,1.2575568E0,1.0658622E0],"tree_param":{"num_deleted":"0","num_feature":"194","num_nodes":"15","size_leaf_vector":"1"}},{"base_weights":[-5.3508296E-3,-5.153444E-2,3.9935464E-1,8.272198E-1,-4.8059147E-2,-3.8534068E-2,1.067316E0,1.2940301E0,-3.5283584E-2,1.4864528E0,-2.9087896E-2,1.7375234E-1,4.5038182E-2],"categories":[],"categories_nodes":[],"categories_segments":[],"categories_sizes":[],"default_left":[0,0,0,0,0,0,0,0,0,0,0,0,0],"id":46,"left_children":[1,-1,3,5,-1,-1,7,9,-1,11,-1,-1,-1],"loss_changes":[8.571743E0,0E0,9.118319E0,5.055501E0,0E0,0E0,4.8292227E0,4.0693665E0,0E0,2.0263367E0,0E0,0E0,0E0],"parents":[2147483647,0,0,2,2,3,3,6,6,7,7,9,9],"right_children":[2,-1,4,6,-1,-1,8,10,-1,12,-1,-1,-1],"split_conditions":[-4.4095463E-1,-5.153444E-2,-1.2176008E-1,-5.04062E-1,-4.8059147E-2,-3.8534068E-2,9.8309743E-1,1.8915954E-1,-3.5283584E-2,6.9292957E-1,-2.9087896E-2,1.7375234E-1,4.5038182E-2],"split_indices":[28,0,43,70,0,0,76,36,0,125,0,0,0],"split_type":[0,0,0,0,0,0,0,0,0,0,0,0,0],"sum_hessian":[3.95332E1,1.7370373E1,2.2162825E1,1.4952325E1,7.2105007E0,2.3713472E0,1.2580977E1,1.0925614E1,1.6553633E0,9.798148E0,1.127466E0,7.3419476E0,2.4562008E0],"tree_param":{"num_deleted":"0","num_feature":"194","num_nodes":"13","size_leaf_vector":"1"}},{"base_weights":[2.3764832E-2,-5.17518E-2,4.4537944E-1,1.1042163E0,-1.3672043E-1,1.8534052E-1,2.9265594E-1,-4.147546E-1,9.594882E-2,-4.1731674E-2,1.0639644E0,2.0255376E-2,-4.974489E-2,1.7518355E-2,1.4232334E-1],"categories":[],"categories_nodes":[],"categories_segments":[],"categories_sizes":[],"default_left":[0,0,0,0,0,0,0,0,0,0,0,0,0,0,0],"id":47,"left_children":[1,-1,3,5,7,-1,9,11,-1,-1,13,-1,-1,-1,-1],"loss_changes":[9.389571E0,0E0,9.009388E0,6.1123857E0,4.406822E0,0E0,3.9713702E0,6.719984E-1,0E0,0E0,8.2645416E-1,0E0,0E0,0E0,0E0],"parents":[2147483647,0,0,2,2,3,3,4,4,6,6,7,7,10,10],"right_children":[2,-1,4,6,8,-1,10,12,-1,-1,14,-1,-1,-1,-1],"split_conditions":[1.8489847E-1,-5.17518E-2,-1.9091906E-2,-4.1902667E-1,6.868942E-1,1.8534052E-1,5.942672E-1,-8.0757445E-1,9.594882E-2,-4.1731674E-2,-3.0093402E-1,2.0255376E-2,-4.974489E-2,1.7518355E-2,1.4232334E-1],"split_indices":[176,0,75,24,5,0,21,29,0,0,14,0,0,0,0],"split_type":[0,0,0,0,0,0,0,0,0,0,0,0,0,0,0],"sum_hessian":[3.9133953E1,1.7035608E1,2.2098347E1,9.945171E0,1.2153175E1,4.5037737E0,5.441397E0,1.0190244E1,1.962931E0,3.072332E0,2.369065E0,1.0325898E0,9.157654E0,1.1101993E0,1.2588658E0],"tree_param":{"num_deleted":"0","num_feature":"194","num_nodes":"15","size_leaf_vector":"1"}},{"base_weights":[-1.2631504E-2,1.3735781E0,-4.3654317E-1,1.6720691E-1,-3.216742E-2,-4.9510115E-1,4.1617762E-2,1.9675743E-2,-5.271023E-2],"categories":[],"categories_nodes":[],"categories_segments":[],"categories_sizes":[],"default_left":[0,0,0,0,0,0,0,0,0],"id":48,"left_children":[1,3,5,-1,-1,7,-1,-1,-1],"loss_changes":[2.4355663E1,5.4506416E0,1.7898502E0,0E0,0E0,7.709446E-1,0E0,0E0,0E0],"parents":[2147483647,0,0,1,1,2,2,5,5],"right_children":[2,4,6,-1,-1,8,-1,-1,-1],"split_conditions":[-1.1577735E0,-3.4535357E-1,1.805497E0,1.6720691E-1,-3.216742E-2,-1.4380292E0,4.1617762E-2,1.9675743E-2,-5.271023E-2],"split_indices":[95,51,49,0,0,113,0,0,0],"split_type":[0,0,0,0,0,0,0,0,0],"sum_hessian":[3.9426838E1,8.7087145E0,3.0718122E1,7.4165273E0,1.2921875E0,2.9136639E1,1.5814828E0,1.0604936E0,2.8076145E1],"tree_param":{"num_deleted":"0","num_feature":"194","num_nodes":"9","size_leaf_vector":"1"}},{"base_weights":[-3.288019E-2,8.480197E-1,-4.2920712E-1,1.2193512E0,-4.0584717E-2,-5.2716184E-2,7.581699E-2,1.3955401E0,6.0281246E-3,6.149417E-1,1.7755E-1,1.2280088E-1,-3.4175348E-2],"categories":[],"categories_nodes":[],"categories_segments":[],"categories_sizes":[],"default_left":[0,0,0,0,0,0,0,0,0,0,0,0,0],"id":49,"left_children":[1,3,5,7,-1,-1,-1,9,-1,11,-1,-1,-1],"loss_changes":[1.5033664E1,6.722043E0,3.84755E0,2.0740976E0,0E0,0E0,0E0,1.6157131E0,0E0,3.069891E0,0E0,0E0,0E0],"parents":[2147483647,0,0,1,1,2,2,3,3,7,7,9,9],"right_children":[2,4,6,8,-1,-1,-1,10,-1,12,-1,-1,-1],"split_conditions":[-8.816971E-1,5.6288207E-1,1.846775E0,-5.0435466E-1,-4.0584717E-2,-5.2716184E-2,7.581699E-2,-6.057037E-1,6.0281246E-3,1.2008894E-1,1.7755E-1,1.2280088E-1,-3.4175348E-2],"split_indices":[3,76,97,93,0,0,0,103,0,35,0,0,0],"split_type":[0,0,0,0,0,0,0,0,0,0,0,0,0],"sum_hessian":[4.101852E1,1.2374506E1,2.8644014E1,9.56837E0,2.8061361E0,2.6974716E1,1.6692978E0,8.1287155E0,1.4396542E0,3.5185533E0,4.610162E0,1.971553E0,1.5470003E0],"tree_param":{"num_deleted":"0","num_feature":"194","num_nodes":"13","size_leaf_vector":"1"}},{"base_weights":[-4.5090555E-3,-3.7022945E-1,5.7315123E-1,-5.1987447E-2,3.0848268E-1,-2.3757161E-1,1.2452834E0,-3.746776E-2,9.385686E-2,5.739609E-2,-4.683965E-2,1.4884217E0,-2.8287081E-2,5.9343737E-2,1.6781849E-1],"categories":[],"categories_nodes":[],"categories_segments":[],"categories_sizes":[],"default_left":[0,0,0,0,0,0,0,0,0,0,0,0,0,0,0],"id":50,"left_children":[1,3,5,-1,7,9,11,-1,-1,-1,-1,13,-1,-1,-1],"loss_changes":[8.583316E0,2.6863878E0,8.880188E0,0E0,2.5558043E0,1.7637469E0,3.6807375E0,0E0,0E0,0E0,0E0,3.1669426E-1,0E0,0E0,0E0],"parents":[2147483647,0,0,1,1,2,2,4,4,5,5,6,6,11,11],"right_children":[2,4,6,-1,8,10,12,-1,-1,-1,-1,14,-1,-1,-1],"split_conditions":[-4.886411E-2,4.219564E-1,2.012475E-2,-5.1987447E-2,5.407888E-1,-6.3176465E-1,1.7193804E0,-3.746776E-2,9.385686E-2,5.739609E-2,-4.683965E-2,1.5602696E-1,-2.8287081E-2,5.9343737E-2,1.6781849E-1],"split_indices":[29,17,42,0,180,22,103,0,0,0,0,117,0,0,0],"split_type":[0,0,0,0,0,0,0,0,0,0,0,0,0,0,0],"sum_hessian":[3.8624317E1,2.3870708E1,1.4753609E1,1.9750149E1,4.1205597E0,6.9804096E0,7.7731996E0,2.1715007E0,1.949059E0,1.216585E0,5.7638245E0,6.7286344E0,1.0445651E0,1.8991038E0,4.8295307E0],"tree_param":{"num_deleted":"0","num_feature":"194","num_nodes":"15","size_leaf_vector":"1"}},{"base_weights":[1.3048919E-2,7.4208486E-1,-5.2168656E-2,1.0470225E0,-1.14852145E-1,1.2712497E0,1.13954626E-1,6.1813153E-2,-4.3022357E-2,1.4353685E-1,8.40564E-3,-3.387032E-2,6.305614E-2],"categories":[],"categories_nodes":[],"categories_segments":[],"categories_sizes":[],"default_left":[0,0,0,0,0,0,0,0,0,0,0,0,0],"id":51,"left_children":[1,3,-1,5,7,9,11,-1,-1,-1,-1,-1,-1],"loss_changes":[1.6510979E1,4.801223E0,0E0,2.6400042E0,1.5610334E0,1.9511528E0,1.0735289E0,0E0,0E0,0E0,0E0,0E0,0E0],"parents":[2147483647,0,0,1,1,3,3,4,4,5,5,6,6],"right_children":[2,4,-1,6,8,10,12,-1,-1,-1,-1,-1,-1],"split_conditions":[-7.329638E-1,1.1459277E-1,-5.2168656E-2,-3.607096E-1,-1.3696276E0,-2.934518E-1,-9.672006E-1,6.1813153E-2,-4.3022357E-2,1.4353685E-1,8.40564E-3,-3.387032E-2,6.305614E-2],"split_indices":[4,172,0,27,107,110,170,0,0,0,0,0,0],"split_type":[0,0,0,0,0,0,0,0,0,0,0,0,0],"sum_hessian":[4.036E1,1.6913324E1,2.3446678E1,1.2310768E1,4.6025567E0,9.633326E0,2.6774426E0,1.0957687E0,3.5067878E0,8.279689E0,1.3536365E0,1.6105907E0,1.0668519E0],"tree_param":{"num_deleted":"0","num_feature":"194","num_nodes":"13","size_leaf_vector":"1"}},{"base_weights":[8.238099E-2,-2.566355E-1,7.841936E-1,-5.1817823E-2,4.2421138E-1,1.1285422E0,-4.0657874E-2,1.0387533E0,-4.2254265E-2,1.783459E-1,4.2467535E-1,1.3653506E-1,8.615379E-3,1.1780814E-1,-4.1058447E-2],"categories":[],"categories_nodes":[],"categories_segments":[],"categories_sizes":[],"default_left":[0,0,0,0,0,0,0,0,0,0,0,0,0,0,0],"id":52,"left_children":[1,3,5,-1,7,9,-1,11,-1,-1,13,-1,-1,-1,-1],"loss_changes":[9.836262E0,5.2163067E0,5.968466E0,0E0,4.777271E0,4.169306E0,0E0,1.4753284E0,0E0,0E0,4.551317E0,0E0,0E0,0E0,0E0],"parents":[2147483647,0,0,1,1,2,2,4,4,5,5,7,7,10,10],"right_children":[2,4,6,-1,8,10,-1,12,-1,-1,14,-1,-1,-1,-1],"split_conditions":[-7.91061E-2,-1.8832752E-1,5.06748E-1,-5.1817823E-2,-3.643261E-1,-3.856596E-1,-4.0657874E-2,-8.0485624E-1,-4.2254265E-2,1.783459E-1,-3.2471183E-1,1.3653506E-1,8.615379E-3,1.1780814E-1,-4.1058447E-2],"split_indices":[68,27,28,0,72,10,0,45,0,0,40,0,0,0,0],"split_type":[0,0,0,0,0,0,0,0,0,0,0,0,0,0,0],"sum_hessian":[3.949582E1,2.7059044E1,1.2436774E1,1.9721922E1,7.3371224E0,9.687573E0,2.7492008E0,4.1201367E0,3.2169857E0,4.223755E0,5.4638186E0,2.745542E0,1.3745946E0,2.656875E0,2.8069437E0],"tree_param":{"num_deleted":"0","num_feature":"194","num_nodes":"15","size_leaf_vector":"1"}},{"base_weights":[1.2175244E-2,-3.8287407E-1,4.223245E-1,1.20722346E-1,-5.1349282E-2,1.135952E0,-1.1837835E-1,-3.9039243E-2,7.4385665E-2,1.4884278E0,-3.4026887E-2,-4.8841167E-2,7.220842E-1,1.9166764E-2,1.672495E-1,-3.189052E-2,1.3528979E-1],"categories":[],"categories_nodes":[],"categories_segments":[],"categories_sizes":[],"default_left":[0,0,0,0,0,0,0,0,0,0,0,0,0,0,0,0,0],"id":53,"left_children":[1,3,5,7,-1,9,11,-1,-1,13,-1,-1,15,-1,-1,-1,-1],"loss_changes":[6.708143E0,1.4502442E0,7.9667087E0,1.9326264E0,0E0,5.1084146E0,4.2258105E0,0E0,0E0,1.4280014E0,0E0,0E0,3.1963334E0,0E0,0E0,0E0,0E0],"parents":[2147483647,0,0,1,1,2,2,3,3,5,5,6,6,9,9,12,12],"right_children":[2,4,6,8,-1,10,12,-1,-1,14,-1,-1,16,-1,-1,-1,-1],"split_conditions":[8.456293E-3,-3.058832E-1,5.059438E-1,2.5167504E-1,-5.1349282E-2,6.7010003E-1,1.8275234E0,-3.9039243E-2,7.4385665E-2,-1.749709E-1,-3.4026887E-2,-4.8841167E-2,3.6017698E-1,1.9166764E-2,1.672495E-1,-3.189052E-2,1.3528979E-1],"split_indices":[145,14,136,112,0,99,99,0,0,121,0,0,51,0,0,0,0],"split_type":[0,0,0,0,0,0,0,0,0,0,0,0,0,0,0,0,0],"sum_hessian":[3.9402885E1,2.0104778E1,1.9298105E1,4.1562505E0,1.5948528E1,7.844259E0,1.1453847E1,2.4885576E0,1.6676929E0,6.3256264E0,1.5186324E0,8.243382E0,3.2104645E0,1.0400101E0,5.285616E0,1.3979595E0,1.8125049E0],"tree_param":{"num_deleted":"0","num_feature":"194","num_nodes":"17","size_leaf_vector":"1"}},{"base_weights":[-7.971629E-3,8.2845855E-1,-4.5196164E-1,1.0897825E0,-1.5669495E-1,6.6683464E-2,-5.225423E-2,1.2519369E0,-2.7918983E-2,-3.5917837E-2,2.0039564E-2,1.5005798E0,3.792114E-1,1.807168E-2,1.6791688E-1,-3.342401E-2,1.0177199E-1],"categories":[],"categories_nodes":[],"categories_segments":[],"categories_sizes":[],"default_left":[0,0,0,0,0,0,0,0,0,0,0,0,0,0,0,0,0],"id":54,"left_children":[1,3,5,7,9,-1,-1,11,-1,-1,-1,13,15,-1,-1,-1,-1],"loss_changes":[1.5198412E1,3.8250456E0,2.4586349E0,2.8677921E0,3.5036314E-1,0E0,0E0,1.6715069E0,0E0,0E0,0E0,1.5109749E0,1.9926968E0,0E0,0E0,0E0,0E0],"parents":[2147483647,0,0,1,1,2,2,3,3,4,4,7,7,11,11,12,12],"right_children":[2,4,6,8,10,-1,-1,12,-1,-1,-1,14,16,-1,-1,-1,-1],"split_conditions":[-7.7573246E-1,5.935528E-1,-6.019081E-1,8.757339E-2,-7.119471E-2,6.6683464E-2,-5.225423E-2,-2.6154137E-1,-2.7918983E-2,-3.5917837E-2,2.0039564E-2,-6.8111527E-1,-3.4307724E-1,1.807168E-2,1.6791688E-1,-3.342401E-2,1.0177199E-1],"split_indices":[2,45,1,8,8,0,0,112,0,0,0,42,109,0,0,0,0],"split_type":[0,0,0,0,0,0,0,0,0,0,0,0,0,0,0,0,0],"sum_hessian":[3.8917374E1,1.3194463E1,2.572291E1,1.0344305E1,2.8501582E0,1.0251474E0,2.4697763E1,9.325226E0,1.0190792E0,1.8150896E0,1.0350688E0,6.697627E0,2.6275985E0,1.0380228E0,5.6596045E0,1.4660289E0,1.1615696E0],"tree_param":{"num_deleted":"0","num_feature":"194","num_nodes":"17","size_leaf_vector":"1"}},{"base_weights":[4.319703E-2,-4.254969E-1,5.6161374E-1,-5.1709473E-2,5.3136416E-2,-4.3314584E-2,8.2691276E-1,-3.7983373E-2,1.0669594E0,4.1480356E-1,1.6611338E0,-4.182275E-2,1.1332717E0,1.9349109E-1,4.4922467E-2,2.0192971E-2,1.359034E-1],"categories":[],"categories_nodes":[],"categories_segments":[],"categories_sizes":[],"default_left":[0,0,0,0,0,0,0,0,0,0,0,0,0,0,0,0,0],"id":55,"left_children":[1,3,5,-1,-1,-1,7,-1,9,11,13,-1,15,-1,-1,-1,-1],"loss_changes":[9.611713E0,2.1002345E0,5.3055925E0,0E0,0E0,0E0,4.7919436E0,0E0,4.307083E0,4.950564E0,1.2588425E0,0E0,6.2665176E-1,0E0,0E0,0E0,0E0],"parents":[2147483647,0,0,1,1,2,2,6,6,8,8,9,9,10,10,12,12],"right_children":[2,4,6,-1,-1,-1,8,-1,10,12,14,-1,16,-1,-1,-1,-1],"split_conditions":[5.3560655E-3,1.1369454E0,-6.330406E-1,-5.1709473E-2,5.3136416E-2,-4.3314584E-2,-5.432052E-1,-3.7983373E-2,6.398561E-1,8.887651E-2,2.866528E-2,-4.182275E-2,4.920401E-1,1.9349109E-1,4.4922467E-2,2.0192971E-2,1.359034E-1],"split_indices":[2,30,5,0,0,0,106,0,179,40,24,0,3,0,0,0,0],"split_type":[0,0,0,0,0,0,0,0,0,0,0,0,0,0,0,0,0],"sum_hessian":[3.757436E1,1.9827662E1,1.7746698E1,1.8514874E1,1.3127875E0,3.6032734E0,1.4143425E1,2.250006E0,1.1893418E1,6.479618E0,5.4138007E0,3.1940975E0,3.2855206E0,3.9295197E0,1.4842811E0,1.0106595E0,2.274861E0],"tree_param":{"num_deleted":"0","num_feature":"194","num_nodes":"17","size_leaf_vector":"1"}},{"base_weights":[-4.395393E-2,-5.1144548E-2,3.5875544E-1,7.1488434E-1,-4.6286236E-2,1.0914493E0,-2.3128705E-1,1.6083284E-1,1.3946099E-2,2.1751879E-2,-4.051171E-2,6.713835E-2,-3.919773E-2],"categories":[],"categories_nodes":[],"categories_segments":[],"categories_sizes":[],"default_left":[0,0,0,0,0,0,0,0,0,0,0,0,0],"id":56,"left_children":[1,-1,3,5,-1,7,9,-1,11,-1,-1,-1,-1],"loss_changes":[6.859253E0,0E0,6.076866E0,5.273524E0,0E0,5.689209E0,4.6549046E-1,0E0,1.4196252E0,0E0,0E0,0E0,0E0],"parents":[2147483647,0,0,2,2,3,3,5,5,6,6,8,8],"right_children":[2,-1,4,6,-1,8,10,-1,12,-1,-1,-1,-1],"split_conditions":[-3.7599778E-1,-5.1144548E-2,-1.2690836E-1,-4.0042052E-1,-4.6286236E-2,4.028439E-1,-6.038269E-1,1.6083284E-1,-5.521312E-1,2.1751879E-2,-4.051171E-2,6.713835E-2,-3.919773E-2],"split_indices":[26,0,43,11,0,126,106,0,146,0,0,0,0],"split_type":[0,0,0,0,0,0,0,0,0,0,0,0,0],"sum_hessian":[3.445976E1,1.5822246E1,1.8637514E1,1.3092499E1,5.5450153E0,9.255413E0,3.837086E0,5.9219866E0,3.333426E0,1.0010861E0,2.836E0,1.0228472E0,2.3105788E0],"tree_param":{"num_deleted":"0","num_feature":"194","num_nodes":"13","size_leaf_vector":"1"}},{"base_weights":[8.960111E-2,-5.0724436E-2,4.025911E-1,6.0293806E-1,-4.5823786E-2,-2.2378667E-1,9.4938385E-1,-4.6673924E-2,6.2000036E-2,-2.1466146E-1,1.2722065E0,1.8899586E-2,-3.9161988E-2,-2.9764665E-2,1.4520589E0,1.6482031E-1,-2.8515352E-2],"categories":[],"categories_nodes":[],"categories_segments":[],"categories_sizes":[],"default_left":[0,0,0,0,0,0,0,0,0,0,0,0,0,0,0,0,0],"id":57,"left_children":[1,-1,3,5,-1,7,9,-1,-1,11,13,-1,-1,-1,15,-1,-1],"loss_changes":[8.013879E0,0E0,5.1021967E0,6.837515E0,0E0,1.8555763E0,6.470068E0,0E0,0E0,3.908859E-1,4.1181393E0,0E0,0E0,0E0,4.519081E0,0E0,0E0],"parents":[2147483647,0,0,2,2,3,3,5,5,6,6,9,9,10,10,14,14],"right_children":[2,-1,4,6,-1,8,10,-1,-1,12,14,-1,-1,-1,16,-1,-1],"split_conditions":[-5.5303526E-1,-5.0724436E-2,9.9262947E-1,-3.5225514E-1,-4.5823786E-2,1.8679408E0,-7.022011E-1,-4.6673924E-2,6.2000036E-2,-3.621524E-1,-7.861015E-1,1.8899586E-2,-3.9161988E-2,-2.9764665E-2,1.5202163E0,1.6482031E-1,-2.8515352E-2],"split_indices":[3,0,179,0,0,117,101,0,0,7,100,0,0,0,77,0,0],"split_type":[0,0,0,0,0,0,0,0,0,0,0,0,0,0,0,0,0],"sum_hessian":[4.0806152E1,1.3824108E1,2.6982044E1,2.2130936E1,4.851108E0,6.639981E0,1.5490955E1,5.5024934E0,1.1374874E0,3.4360769E0,1.2054878E1,1.0265055E0,2.4095714E0,1.1717994E0,1.088308E1,9.825E0,1.0580794E0],"tree_param":{"num_deleted":"0","num_feature":"194","num_nodes":"17","size_leaf_vector":"1"}},{"base_weights":[5.7000346E-3,1.2858135E0,-3.966463E-1,1.5250091E-1,2.233518E-3,9.719228E-2,-4.913402E-1,-5.2433968E-2,1.5084304E-2],"categories":[],"categories_nodes":[],"categories_segments":[],"categories_sizes":[],"default_left":[0,0,0,0,0,0,0,0,0],"id":58,"left_children":[1,3,5,-1,-1,-1,7,-1,-1],"loss_changes":[2.0347618E1,2.8208532E0,4.3743973E0,0E0,0E0,0E0,6.891556E-1,0E0,0E0],"parents":[2147483647,0,0,1,1,2,2,6,6],"right_children":[2,4,6,-1,-1,-1,8,-1,-1],"split_conditions":[-1.1577735E0,-2.4736296E-1,-1.5340706E0,1.5250091E-1,2.233518E-3,9.719228E-2,1.7712108E0,-5.2433968E-2,1.5084304E-2],"split_indices":[95,18,104,0,0,0,77,0,0],"split_type":[0,0,0,0,0,0,0,0,0],"sum_hessian":[3.7515957E1,8.446526E0,2.9069431E1,6.9279647E0,1.5185609E0,1.2817034E0,2.7787727E1,2.660414E1,1.1835874E0],"tree_param":{"num_deleted":"0","num_feature":"194","num_nodes":"9","size_leaf_vector":"1"}},{"base_weights":[-5.319352E-2,6.4038163E-1,-4.513873E-1,-4.1429665E-2,9.2616916E-1,-5.2278575E-2,5.6954034E-2,8.183996E-2,1.3535824E0,-4.237952E-2,9.6928775E-2,9.303489E-3,1.5729226E-1],"categories":[],"categories_nodes":[],"categories_segments":[],"categories_sizes":[],"default_left":[0,0,0,0,0,0,0,0,0,0,0,0,0],"id":59,"left_children":[1,3,5,-1,7,-1,-1,9,11,-1,-1,-1,-1],"loss_changes":[1.170931E1,5.0541716E0,2.25535E0,0E0,4.4004354E0,0E0,0E0,2.7736027E0,2.130558E0,0E0,0E0,0E0,0E0],"parents":[2147483647,0,0,1,1,2,2,4,4,7,7,8,8],"right_children":[2,4,6,-1,8,-1,-1,10,12,-1,-1,-1,-1],"split_conditions":[-8.788445E-1,-1.0442033E0,1.8985593E0,-4.1429665E-2,-2.9173914E-1,-5.2278575E-2,5.6954034E-2,-3.070776E-1,-2.319934E-1,-4.237952E-2,9.6928775E-2,9.303489E-3,1.5729226E-1],"split_indices":[3,108,97,0,8,0,0,39,17,0,0,0,0],"split_type":[0,0,0,0,0,0,0,0,0,0,0,0,0],"sum_hessian":[4.0351154E1,1.4495182E1,2.5855972E1,2.9945056E0,1.1500677E1,2.462197E1,1.2340037E0,4.26564E0,7.235037E0,3.0502024E0,1.2154372E0,1.2834145E0,5.9516225E0],"tree_param":{"num_deleted":"0","num_feature":"194","num_nodes":"13","size_leaf_vector":"1"}},{"base_weights":[-1.2274128E-2,-4.3657425E-1,5.313101E-1,-5.170102E-2,2.681174E-2,-4.5309868E-2,9.288319E-1,-3.8925618E-2,1.2723051E0,1.4838023E-1,3.5752524E-3],"categories":[],"categories_nodes":[],"categories_segments":[],"categories_sizes":[],"default_left":[0,0,0,0,0,0,0,0,0,0,0],"id":60,"left_children":[1,3,5,-1,-1,-1,7,-1,9,-1,-1],"loss_changes":[9.409325E0,1.4364262E0,7.423333E0,0E0,0E0,0E0,6.414572E0,0E0,2.7207813E0,0E0,0E0],"parents":[2147483647,0,0,1,1,2,2,6,6,8,8],"right_children":[2,4,6,-1,-1,-1,8,-1,10,-1,-1],"split_conditions":[2.1025579E-1,1.2493725E0,3.9682713E-1,-5.170102E-2,2.681174E-2,-4.5309868E-2,-2.6381505E-1,-3.8925618E-2,1.4402018E0,1.4838023E-1,3.5752524E-3],"split_indices":[105,100,171,0,0,0,14,0,111,0,0],"split_type":[0,0,0,0,0,0,0,0,0,0,0],"sum_hessian":[3.8790394E1,2.1896063E1,1.6894333E1,1.9891867E1,2.004196E0,4.819554E0,1.2074779E1,2.46851E0,9.606269E0,8.032463E0,1.5738052E0],"tree_param":{"num_deleted":"0","num_feature":"194","num_nodes":"11","size_leaf_vector":"1"}},{"base_weights":[5.617611E-2,7.095892E-1,-5.1660784E-2,-2.6533815E-1,9.9670553E-1,-4.196521E-2,1.9259853E-2,1.1789821E0,-3.3905096E-2,1.2203085E-2,1.27242E0,1.4060251E-1,2.8786514E-2],"categories":[],"categories_nodes":[],"categories_segments":[],"categories_sizes":[],"default_left":[0,0,0,0,0,0,0,0,0,0,0,0,0],"id":61,"left_children":[1,3,-1,5,7,-1,-1,9,-1,-1,11,-1,-1],"loss_changes":[1.5666371E1,5.72764E0,0E0,4.504015E-1,4.1218147E0,0E0,0E0,1.1952534E0,0E0,0E0,1.2340145E0,0E0,0E0],"parents":[2147483647,0,0,1,1,3,3,4,4,7,7,10,10],"right_children":[2,4,-1,6,8,-1,-1,10,-1,-1,12,-1,-1],"split_conditions":[-8.7049043E-1,1.14684135E-1,-5.1660784E-2,2.1701671E-1,-2.7801105E-1,-4.196521E-2,1.9259853E-2,-1.6843475E0,-3.3905096E-2,1.2203085E-2,2.492092E-1,1.4060251E-1,2.8786514E-2],"split_indices":[3,95,0,111,25,0,0,125,0,0,122,0,0],"split_type":[0,0,0,0,0,0,0,0,0,0,0,0,0],"sum_hessian":[3.987962E1,1.851709E1,2.136253E1,4.229915E0,1.4287175E1,3.2263224E0,1.0035926E0,1.2674929E1,1.6122469E0,1.2167943E0,1.1458134E1,9.712109E0,1.7460253E0],"tree_param":{"num_deleted":"0","num_feature":"194","num_nodes":"13","size_leaf_vector":"1"}},{"base_weights":[6.3464637E-3,-1.959487E-1,7.711355E-1,-5.152324E-2,3.153102E-1,-1.4292836E-1,1.2123381E0,7.096235E-1,-4.4059183E-2,1.8967044E-2,-3.50763E-2,1.4589344E-1,1.3994223E-2,-4.0206276E-2,1.3229032E0,1.4720488E-1,4.728837E-2],"categories":[],"categories_nodes":[],"categories_segments":[],"categories_sizes":[],"default_left":[0,0,0,0,0,0,0,0,0,0,0,0,0,0,0,0,0],"id":62,"left_children":[1,3,5,-1,7,9,11,13,-1,-1,-1,-1,-1,-1,15,-1,-1],"loss_changes":[6.110753E0,5.265278E0,3.5045862E0,0E0,4.0794663E0,3.142532E-1,1.2970314E0,6.45536E0,0E0,0E0,0E0,0E0,0E0,0E0,4.3308258E-2,0E0,0E0],"parents":[2147483647,0,0,1,1,2,2,4,4,5,5,6,6,7,7,14,14],"right_children":[2,4,6,-1,8,10,12,14,-1,-1,-1,-1,-1,-1,16,-1,-1],"split_conditions":[6.3419515E-1,-2.1782888E-1,-3.8207892E-1,-5.152324E-2,5.9221125E-1,-1.4856923E-1,-3.1977642E-1,-5.309833E-1,-4.4059183E-2,1.8967044E-2,-3.50763E-2,1.4589344E-1,1.3994223E-2,-4.0206276E-2,-2.4638021E-1,1.4720488E-1,4.728837E-2],"split_indices":[68,23,9,0,114,33,40,30,0,0,0,0,0,0,16,0,0],"split_type":[0,0,0,0,0,0,0,0,0,0,0,0,0,0,0,0,0],"sum_hessian":[3.7520645E1,3.026026E1,7.2603865E0,1.862259E1,1.163767E1,2.5836802E0,4.6767063E0,7.688314E0,3.9493558E0,1.0272169E0,1.5564631E0,3.5093021E0,1.1674043E0,2.855884E0,4.83243E0,3.4885423E0,1.3438873E0],"tree_param":{"num_deleted":"0","num_feature":"194","num_nodes":"17","size_leaf_vector":"1"}},{"base_weights":[1.9110935E-2,-3.9241928E-1,5.3119576E-1,-4.7192007E-1,4.727588E-2,1.3275783E0,-7.8435406E-2,-5.158074E-2,1.73438E-2,1.5175061E-2,1.5077314E-1,-3.8806075E-1,9.2704855E-2,-4.814006E-2,1.7422618E-2],"categories":[],"categories_nodes":[],"categories_segments":[],"categories_sizes":[],"default_left":[0,0,0,0,0,0,0,0,0,0,0,0,0,0,0],"id":63,"left_children":[1,3,5,7,-1,9,11,-1,-1,-1,-1,13,-1,-1,-1],"loss_changes":[8.511222E0,1.7651377E0,8.833138E0,6.851716E-1,0E0,1.4343691E0,3.8241498E0,0E0,0E0,0E0,0E0,5.6740355E-1,0E0,0E0,0E0],"parents":[2147483647,0,0,1,1,2,2,3,3,5,5,6,6,11,11],"right_children":[2,4,6,8,-1,10,12,-1,-1,-1,-1,14,-1,-1,-1],"split_conditions":[-2.949514E-1,1.9766217E0,-4.4218656E-1,2.016869E0,4.727588E-2,-4.0673563E-1,5.915275E-1,-5.158074E-2,1.73438E-2,1.5175061E-2,1.5077314E-1,1.6743135E0,9.2704855E-2,-4.814006E-2,1.7422618E-2],"split_indices":[70,3,2,75,0,31,59,0,0,0,0,25,0,0,0],"split_type":[0,0,0,0,0,0,0,0,0,0,0,0,0,0,0],"sum_hessian":[3.839847E1,2.1419031E1,1.6979439E1,2.003277E1,1.3862617E0,6.8514614E0,1.0127978E1,1.8945156E1,1.0876144E0,1.1550428E0,5.6964183E0,8.212962E0,1.915016E0,7.167077E0,1.045885E0],"tree_param":{"num_deleted":"0","num_feature":"194","num_nodes":"15","size_leaf_vector":"1"}},{"base_weights":[-7.905956E-2,6.011752E-1,-4.4716144E-1,-2.7169788E-1,1.0175494E0,-5.203094E-2,5.5036634E-2,2.0671448E-2,-4.288509E-2,-2.0323421E-3,1.2516875E0,4.245476E-2,1.3617848E-1],"categories":[],"categories_nodes":[],"categories_segments":[],"categories_sizes":[],"default_left":[0,0,0,0,0,0,0,0,0,0,0,0,0],"id":64,"left_children":[1,3,5,7,9,-1,-1,-1,-1,-1,11,-1,-1],"loss_changes":[1.0064666E1,5.4239798E0,2.1804576E0,4.9189183E-1,2.4068527E0,0E0,0E0,0E0,0E0,0E0,1.5147305E-1,0E0,0E0],"parents":[2147483647,0,0,1,1,2,2,3,3,4,4,10,10],"right_children":[2,4,6,8,10,-1,-1,-1,-1,-1,12,-1,-1],"split_conditions":[-7.7657694E-1,-2.3880938E-1,2.4836965E0,-1.1951572E0,-7.195406E-1,-5.203094E-2,5.5036634E-2,2.0671448E-2,-4.288509E-2,-2.0323421E-3,-3.6292377E-1,4.245476E-2,1.3617848E-1],"split_indices":[2,51,45,116,93,0,0,0,0,0,7,0,0],"split_type":[0,0,0,0,0,0,0,0,0,0,0,0,0],"sum_hessian":[3.8121456E1,1.316324E1,2.4958218E1,4.3634067E0,8.799833E0,2.3698803E1,1.2594143E0,1.0009372E0,3.3624692E0,1.787871E0,7.0119624E0,1.3941426E0,5.61782E0],"tree_param":{"num_deleted":"0","num_feature":"194","num_nodes":"13","size_leaf_vector":"1"}},{"base_weights":[-6.646596E-3,4.4529086E-1,-4.6774513E-1,-3.6014566E-1,9.35911E-1,1.8467285E-2,-5.141398E-2,-4.697263E-2,2.043543E-2,1.4606088E0,1.5793772E-1,1.8810265E-2,1.6426985E-1,-4.1726887E-2,8.7676965E-2],"categories":[],"categories_nodes":[],"categories_segments":[],"categories_sizes":[],"default_left":[0,0,0,0,0,0,0,0,0,0,0,0,0,0,0],"id":65,"left_children":[1,3,5,7,9,-1,-1,-1,-1,11,13,-1,-1,-1,-1],"loss_changes":[8.171611E0,8.16565E0,6.82251E-1,6.04561E-1,4.9083443E0,0E0,0E0,0E0,0E0,1.4050493E0,2.926139E0,0E0,0E0,0E0,0E0],"parents":[2147483647,0,0,1,1,2,2,3,3,4,4,9,9,10,10],"right_children":[2,4,6,8,10,-1,-1,-1,-1,12,14,-1,-1,-1,-1],"split_conditions":[-3.7836063E-1,2.783065E-1,-1.4393299E0,4.2461947E-1,1.1274865E-1,1.8467285E-2,-5.141398E-2,-4.697263E-2,2.043543E-2,-6.947914E-1,-1.12488694E-1,1.8810265E-2,1.6426985E-1,-4.1726887E-2,8.7676965E-2],"split_indices":[9,117,119,98,21,0,0,0,0,4,40,0,0,0,0],"split_type":[0,0,0,0,0,0,0,0,0,0,0,0,0,0,0],"sum_hessian":[3.7214005E1,1.881101E1,1.8402992E1,7.221548E0,1.1589463E1,1.0239114E0,1.7379082E1,6.188188E0,1.0333599E0,6.397361E0,5.192102E0,1.0553352E0,5.3420258E0,3.1172268E0,2.074875E0],"tree_param":{"num_deleted":"0","num_feature":"194","num_nodes":"15","size_leaf_vector":"1"}},{"base_weights":[-6.454913E-4,-5.0568517E-2,3.2431352E-1,6.889272E-1,-4.788055E-2,9.328221E-1,-2.156676E-1,1.1930065E0,-1.3479744E-1,-3.953409E-2,1.994506E-2,-2.989353E-2,1.3986778E0,1.9439057E-2,-3.3976603E-2,1.606371E-1,6.7278757E-3],"categories":[],"categories_nodes":[],"categories_segments":[],"categories_sizes":[],"default_left":[0,0,0,0,0,0,0,0,0,0,0,0,0,0,0,0,0],"id":66,"left_children":[1,-1,3,5,-1,7,9,11,13,-1,-1,-1,15,-1,-1,-1,-1],"loss_changes":[6.606734E0,0E0,7.5030975E0,4.008669E0,0E0,3.9887562E0,4.1277665E-1,3.8492384E0,3.088698E-1,0E0,0E0,0E0,2.6580276E0,0E0,0E0,0E0,0E0],"parents":[2147483647,0,0,2,2,3,3,5,5,6,6,7,7,8,8,12,12],"right_children":[2,-1,4,6,-1,8,10,12,14,-1,-1,-1,16,-1,-1,-1,-1],"split_conditions":[-4.4095463E-1,-5.0568517E-2,-1.2690836E-1,-1.8462798E-1,-4.788055E-2,9.542507E-2,-3.4479672E-1,-3.8589498E-1,-6.506304E-1,-3.953409E-2,1.994506E-2,-2.989353E-2,4.8606974E-1,1.9439057E-2,-3.3976603E-2,1.606371E-1,6.7278757E-3],"split_indices":[28,0,43,14,0,68,7,10,48,0,0,0,100,0,0,0,0],"split_type":[0,0,0,0,0,0,0,0,0,0,0,0,0,0,0,0,0],"sum_hessian":[3.825691E1,1.4760507E1,2.34964E1,1.6257658E1,7.238743E0,1.27805805E1,3.4770775E0,1.0181782E1,2.598799E0,2.4599807E0,1.0170968E0,1.1786169E0,9.003164E0,1.0170243E0,1.5817747E0,7.609572E0,1.3935927E0],"tree_param":{"num_deleted":"0","num_feature":"194","num_nodes":"17","size_leaf_vector":"1"}},{"base_weights":[-6.534357E-2,-5.0949484E-2,2.195696E-1,1.3008831E-1,-3.6334954E-2,1.01554684E-1,-1.8091865E-1,-3.0833352E-1,7.89E-2,-4.599931E-1,6.498142E-2,1.8585935E-2,-5.15531E-2],"categories":[],"categories_nodes":[],"categories_segments":[],"categories_sizes":[],"default_left":[0,0,0,0,0,0,0,0,0,0,0,0,0],"id":67,"left_children":[1,-1,3,-1,5,-1,7,9,-1,11,-1,-1,-1],"loss_changes":[5.251291E0,0E0,7.0870934E0,0E0,3.4604125E0,0E0,2.6890016E0,2.9452505E0,0E0,6.807821E-1,0E0,0E0,0E0],"parents":[2147483647,0,0,2,2,4,4,6,6,7,7,9,9],"right_children":[2,-1,4,-1,6,-1,8,10,-1,12,-1,-1,-1],"split_conditions":[-4.9841365E-1,-5.0949484E-2,-4.7183016E-1,1.3008831E-1,-5.0657135E-1,1.01554684E-1,2.2836912E0,5.6270003E-1,7.89E-2,-2.62906E-1,6.498142E-2,1.8585935E-2,-5.15531E-2],"split_indices":[69,0,125,0,27,0,117,37,0,132,0,0,0],"split_type":[0,0,0,0,0,0,0,0,0,0,0,0,0],"sum_hessian":[3.961353E1,1.5172643E1,2.4440886E1,3.8958154E0,2.054507E1,1.7547678E0,1.8790302E1,1.7211403E1,1.578899E0,1.5308263E1,1.9031405E0,1.0263432E0,1.42819195E1],"tree_param":{"num_deleted":"0","num_feature":"194","num_nodes":"13","size_leaf_vector":"1"}},{"base_weights":[1.3804131E-3,7.7066195E-1,-4.4939128E-1,1.1639333E0,-4.2293876E-2,6.1915953E-2,-5.2090265E-2,-3.280225E-2,1.417208E0,1.5115353E-1,4.4632174E-2],"categories":[],"categories_nodes":[],"categories_segments":[],"categories_sizes":[],"default_left":[0,0,0,0,0,0,0,0,0,0,0],"id":68,"left_children":[1,3,5,7,-1,-1,-1,-1,9,-1,-1],"loss_changes":[1.4245224E1,7.616498E0,2.3019347E0,4.879301E0,0E0,0E0,0E0,0E0,2.571888E-1,0E0,0E0],"parents":[2147483647,0,0,1,1,2,2,3,3,8,8],"right_children":[2,4,6,8,-1,-1,-1,-1,10,-1,-1],"split_conditions":[-4.894167E-1,-6.5860015E-1,-1.6625601E0,-6.246601E-1,-4.2293876E-2,6.1915953E-2,-5.2090265E-2,-3.280225E-2,1.9523486E-1,1.5115353E-1,4.4632174E-2],"split_indices":[28,55,103,5,0,0,0,0,22,0,0],"split_type":[0,0,0,0,0,0,0,0,0,0,0],"sum_hessian":[3.908098E1,1.4177012E1,2.4903967E1,1.0682246E1,3.4947658E0,1.081755E0,2.3822212E1,1.5074197E0,9.174827E0,7.8548236E0,1.3200033E0],"tree_param":{"num_deleted":"0","num_feature":"194","num_nodes":"11","size_leaf_vector":"1"}},{"base_weights":[4.285475E-2,7.689265E-1,-4.3868014E-1,-3.9244983E-2,1.0119283E0,-5.1819023E-2,6.337566E-2,1.1762974E0,-3.1271253E-2,1.3127533E0,5.7479464E-3,3.8371764E-2,1.4280282E-1],"categories":[],"categories_nodes":[],"categories_segments":[],"categories_sizes":[],"default_left":[0,0,0,0,0,0,0,0,0,0,0,0,0],"id":69,"left_children":[1,3,5,-1,7,-1,-1,9,-1,11,-1,-1,-1],"loss_changes":[1.3910222E1,4.868331E0,2.3729777E0,0E0,3.2813368E0,0E0,0E0,1.7739983E0,0E0,6.034622E-1,0E0,0E0,0E0],"parents":[2147483647,0,0,1,1,2,2,4,4,7,7,9,9],"right_children":[2,4,6,-1,8,-1,-1,10,-1,12,-1,-1,-1],"split_conditions":[-8.788445E-1,-1.0442033E0,1.8985593E0,-3.9244983E-2,-1.3990873E-1,-5.1819023E-2,6.337566E-2,1.9901896E-1,-3.1271253E-2,-1.0882127E0,5.7479464E-3,3.8371764E-2,1.4280282E-1],"split_indices":[3,108,97,0,18,0,0,17,0,107,0,0,0],"split_type":[0,0,0,0,0,0,0,0,0,0,0,0,0],"sum_hessian":[3.78209E1,1.4843153E1,2.2977745E1,2.461919E0,1.2381234E1,2.1872906E1,1.104839E0,1.1114119E1,1.2671161E0,9.75145E0,1.3626685E0,1.5542213E0,8.197228E0],"tree_param":{"num_deleted":"0","num_feature":"194","num_nodes":"13","size_leaf_vector":"1"}},{"base_weights":[7.5266525E-2,-3.3032253E-1,7.0666176E-1,-5.13632E-2,3.835747E-1,1.0114995E0,-4.0982272E-2,1.1268552E-1,-3.892714E-2,1.1468682E0,-2.8411487E-2,1.3029687E0,5.056351E-3,1.4255007E-1,1.4678362E-2],"categories":[],"categories_nodes":[],"categories_segments":[],"categories_sizes":[],"default_left":[0,0,0,0,0,0,0,0,0,0,0,0,0,0,0],"id":70,"left_children":[1,3,5,-1,7,9,-1,-1,-1,11,-1,13,-1,-1,-1],"loss_changes":[1.0384085E1,3.444517E0,5.7994037E0,0E0,3.6800141E0,2.5561686E0,0E0,0E0,0E0,1.9384804E0,0E0,1.2375011E0,0E0,0E0,0E0],"parents":[2147483647,0,0,1,1,2,2,4,4,5,5,9,9,11,11],"right_children":[2,4,6,-1,8,10,-1,-1,-1,12,-1,14,-1,-1,-1],"split_conditions":[5.9727204E-1,-1.3212566E-1,1.3513297E-1,-5.13632E-2,-5.790189E-1,-4.3575943E-2,-4.0982272E-2,1.1268552E-1,-3.892714E-2,6.898454E-1,-2.8411487E-2,1.232186E0,5.056351E-3,1.4255007E-1,1.4678362E-2],"split_indices":[173,69,63,0,60,14,0,0,0,4,0,115,0,0,0],"split_type":[0,0,0,0,0,0,0,0,0,0,0,0,0,0,0],"sum_hessian":[3.863754E1,2.3815819E1,1.482172E1,1.9173187E1,4.642632E0,1.17167E1,3.1050205E0,2.1330876E0,2.5095441E0,1.0712265E1,1.0044341E0,9.212069E0,1.500197E0,8.118716E0,1.0933516E0],"tree_param":{"num_deleted":"0","num_feature":"194","num_nodes":"15","size_leaf_vector":"1"}},{"base_weights":[-6.505017E-2,5.1425934E-1,-5.131318E-2,-3.9717976E-2,7.155599E-1,8.623913E-1,-3.2504473E-2,9.904721E-1,-2.8890893E-2,4.1541857E-1,1.2691306E-1,-3.5249453E-2,8.9712106E-2],"categories":[],"categories_nodes":[],"categories_segments":[],"categories_sizes":[],"default_left":[0,0,0,0,0,0,0,0,0,0,0,0,0],"id":71,"left_children":[1,3,-1,-1,5,7,-1,9,-1,11,-1,-1,-1],"loss_changes":[9.828957E0,3.324432E0,0E0,0E0,2.408678E0,2.1265888E0,0E0,1.3087358E0,0E0,2.2494874E0,0E0,0E0,0E0],"parents":[2147483647,0,0,1,1,4,4,5,5,7,7,9,9],"right_children":[2,4,-1,-1,6,8,-1,10,-1,12,-1,-1,-1],"split_conditions":[-8.7049043E-1,-5.9801275E-1,-5.131318E-2,-3.9717976E-2,-2.7801105E-1,1.2036245E0,-3.2504473E-2,-5.947409E-1,-2.8890893E-2,-2.4881811E-1,1.2691306E-1,-3.5249453E-2,8.9712106E-2],"split_indices":[3,1,0,0,25,75,0,145,0,23,0,0,0],"split_type":[0,0,0,0,0,0,0,0,0,0,0,0,0],"sum_hessian":[3.584856E1,1.5570412E1,2.0278149E1,2.6407373E0,1.2929674E1,1.1480949E1,1.4487253E0,1.0457281E1,1.0236677E0,4.2263517E0,6.2309294E0,1.7325747E0,2.493777E0],"tree_param":{"num_deleted":"0","num_feature":"194","num_nodes":"13","size_leaf_vector":"1"}},{"base_weights":[-5.543185E-2,-2.2859883E-1,8.739076E-1,-3.277098E-1,9.803586E-2,1.247918E-1,-3.249463E-2,-4.3102616E-1,5.444417E-1,-5.2235454E-2,3.7330982E-1,-2.7319858E-2,9.3714856E-2,-2.9874427E-2,8.492868E-2],"categories":[],"categories_nodes":[],"categories_segments":[],"categories_sizes":[],"default_left":[0,0,0,0,0,0,0,0,0,0,0,0,0,0,0],"id":72,"left_children":[1,3,5,7,-1,-1,-1,9,11,-1,13,-1,-1,-1,-1],"loss_changes":[6.472332E0,4.352937E0,3.2434554E0,3.1043649E0,0E0,0E0,0E0,2.3276877E0,1.480991E0,0E0,1.3872426E0,0E0,0E0,0E0,0E0],"parents":[2147483647,0,0,1,1,2,2,3,3,7,7,8,8,10,10],"right_children":[2,4,6,8,-1,-1,-1,10,12,-1,14,-1,-1,-1,-1],"split_conditions":[-1.5312984E-2,2.725233E0,-4.0328604E-1,1.0426E0,9.803586E-2,1.247918E-1,-3.249463E-2,1.0196725E0,-7.966256E-2,-5.2235454E-2,-1.2903734E-2,-2.7319858E-2,9.3714856E-2,-2.9874427E-2,8.492868E-2],"split_indices":[67,2,11,35,0,0,0,24,20,0,32,0,0,0,0],"split_type":[0,0,0,0,0,0,0,0,0,0,0,0,0,0,0],"sum_hessian":[3.7976707E1,3.2647423E1,5.3292856E0,3.0847464E1,1.799959E0,4.0308437E0,1.2984415E0,2.8032484E1,2.8149805E0,2.548892E1,2.5435636E0,1.0120817E0,1.8028986E0,1.2089485E0,1.3346152E0],"tree_param":{"num_deleted":"0","num_feature":"194","num_nodes":"15","size_leaf_vector":"1"}},{"base_weights":[3.4345694E-2,-5.0144136E-2,3.2857952E-1,3.0166442E-2,9.608631E-1,8.0048424E-1,-2.0359246E-1,-3.130202E-2,1.24440186E-1,1.0665392E-1,8.104305E-3,-3.7316E-1,9.370308E-2,3.2812104E-2,-5.016319E-2],"categories":[],"categories_nodes":[],"categories_segments":[],"categories_sizes":[],"default_left":[0,0,0,0,0,0,0,0,0,0,0,0,0,0,0],"id":73,"left_children":[1,-1,3,5,7,9,11,-1,-1,-1,-1,13,-1,-1,-1],"loss_changes":[6.376993E0,0E0,4.8844995E0,3.5345547E0,3.3936753E0,7.8675556E-1,3.2821867E0,0E0,0E0,0E0,0E0,1.4182571E0,0E0,0E0,0E0],"parents":[2147483647,0,0,2,2,3,3,4,4,5,5,6,6,11,11],"right_children":[2,-1,4,6,8,10,12,-1,-1,-1,-1,14,-1,-1,-1],"split_conditions":[-4.784386E-1,-5.0144136E-2,6.491818E-1,-3.3590248E-1,-8.5724336E-1,-3.6418504E-1,1.617339E0,-3.130202E-2,1.24440186E-1,1.0665392E-1,8.104305E-3,-7.85692E-1,9.370308E-2,3.2812104E-2,-5.016319E-2],"split_indices":[31,0,5,38,95,19,82,0,0,0,0,106,0,0,0],"split_type":[0,0,0,0,0,0,0,0,0,0,0,0,0,0,0],"sum_hessian":[3.8406033E1,1.3364901E1,2.5041134E1,1.7723871E1,7.3172617E0,3.5618668E0,1.4162004E1,1.3132247E0,6.0040374E0,2.2480612E0,1.3138056E0,1.2914894E1,1.2471107E0,1.7590199E0,1.1155874E1],"tree_param":{"num_deleted":"0","num_feature":"194","num_nodes":"15","size_leaf_vector":"1"}},{"base_weights":[-1.9913746E-2,8.300758E-1,-4.144235E-1,-3.3844076E-2,1.0307572E0,6.365539E-2,-4.810833E-1,3.438479E-1,1.3440281E-1,-5.1852066E-2,2.1918008E-2,-3.6823712E-2,9.975934E-2],"categories":[],"categories_nodes":[],"categories_segments":[],"categories_sizes":[],"default_left":[0,0,0,0,0,0,0,0,0,0,0,0,0],"id":74,"left_children":[1,3,5,-1,7,-1,9,11,-1,-1,-1,-1,-1],"loss_changes":[1.3070523E1,3.2482014E0,2.1689591E0,0E0,1.8616838E0,0E0,7.8404665E-1,2.5674987E0,0E0,0E0,0E0,0E0,0E0],"parents":[2147483647,0,0,1,1,2,2,4,4,6,6,7,7],"right_children":[2,4,6,-1,8,-1,10,12,-1,-1,-1,-1,-1],"split_conditions":[-7.7713984E-1,-2.760174E-1,-6.026872E-1,-3.3844076E-2,-2.557037E-1,6.365539E-2,2.2904708E0,-9.40727E-1,1.3440281E-1,-5.1852066E-2,2.1918008E-2,-3.6823712E-2,9.975934E-2],"split_indices":[2,18,1,0,138,0,45,116,0,0,0,0,0],"split_type":[0,0,0,0,0,0,0,0,0,0,0,0,0],"sum_hessian":[3.6952324E1,1.1363997E1,2.5588327E1,1.5649917E0,9.7990055E0,1.0162686E0,2.457206E1,3.7261913E0,6.072814E0,2.3571424E1,1.0006354E0,1.9925528E0,1.7336386E0],"tree_param":{"num_deleted":"0","num_feature":"194","num_nodes":"13","size_leaf_vector":"1"}},{"base_weights":[-2.1216597E-3,-2.5934654E-1,8.4722185E-1,1.0780889E-1,-3.9864367E-1,1.1423109E0,-3.4666795E-2,-4.8904115E-1,5.6657054E-2,2.6272824E-2,1.3681939E-1,-5.2184653E-2,1.9117154E-2],"categories":[],"categories_nodes":[],"categories_segments":[],"categories_sizes":[],"default_left":[0,0,0,0,0,0,0,0,0,0,0,0,0],"id":75,"left_children":[1,3,5,-1,7,9,-1,11,-1,-1,-1,-1,-1],"loss_changes":[9.088471E0,6.377195E0,3.8030076E0,0E0,2.8634691E0,1.2274008E0,0E0,7.1655655E-1,0E0,0E0,0E0,0E0,0E0],"parents":[2147483647,0,0,1,1,2,2,4,4,5,5,7,7],"right_children":[2,4,6,-1,8,10,-1,12,-1,-1,-1,-1,-1],"split_conditions":[1.1950538E0,-3.863657E-1,-3.1859842E-1,1.0780889E-1,1.2160099E0,-2.8916907E-1,-3.4666795E-2,2.3443525E0,5.6657054E-2,2.6272824E-2,1.3681939E-1,-5.2184653E-2,1.9117154E-2],"split_indices":[30,10,8,0,179,93,0,114,0,0,0,0,0],"split_type":[0,0,0,0,0,0,0,0,0,0,0,0,0],"sum_hessian":[3.9594383E1,3.0923737E1,8.670647E0,2.2812498E0,2.8642487E1,6.98692E0,1.6837268E0,2.664077E1,2.0017166E0,1.8696537E0,5.117266E0,2.5637156E1,1.0036145E0],"tree_param":{"num_deleted":"0","num_feature":"194","num_nodes":"13","size_leaf_vector":"1"}},{"base_weights":[1.5881844E-2,-3.207935E-1,5.3087795E-1,-4.6474427E-1,2.3310302E-1,8.480735E-1,-4.236385E-2,-5.1148172E-2,1.4199937E-2,7.345982E-1,-3.748871E-2,-3.80223E-2,1.1580244E0,1.1204509E-1,9.262344E-3,1.3160753E-1,8.341099E-3],"categories":[],"categories_nodes":[],"categories_segments":[],"categories_sizes":[],"default_left":[0,0,0,0,0,0,0,0,0,0,0,0,0,0,0,0,0],"id":76,"left_children":[1,3,5,7,9,11,-1,-1,-1,13,-1,-1,15,-1,-1,-1,-1],"loss_changes":[6.9254208E0,2.0364518E0,5.13634E0,6.2639093E-1,1.9993734E0,5.0757284E0,0E0,0E0,0E0,7.474284E-1,0E0,0E0,1.5834808E0,0E0,0E0,0E0,0E0],"parents":[2147483647,0,0,1,1,2,2,3,3,4,4,5,5,9,9,12,12],"right_children":[2,4,6,8,10,12,-1,-1,-1,14,-1,-1,16,-1,-1,-1,-1],"split_conditions":[5.311604E-1,1.0938135E0,-2.9355124E-1,2.6560352E0,8.957272E-2,-1.3672055E-1,-4.236385E-2,-5.1148172E-2,1.4199937E-2,3.2566037E-2,-3.748871E-2,-3.80223E-2,-2.2174694E-1,1.1204509E-1,9.262344E-3,1.3160753E-1,8.341099E-3],"split_indices":[105,2,42,60,46,28,0,0,0,55,0,0,14,0,0,0,0],"split_type":[0,0,0,0,0,0,0,0,0,0,0,0,0,0,0,0,0],"sum_hessian":[3.795989E1,2.318194E1,1.4777948E1,1.8527761E1,4.6541777E0,1.11756735E1,3.6022754E0,1.734842E1,1.1793431E0,2.4363422E0,2.2178354E0,2.2061722E0,8.969501E0,1.0562027E0,1.3801396E0,7.6235547E0,1.3459461E0],"tree_param":{"num_deleted":"0","num_feature":"194","num_nodes":"17","size_leaf_vector":"1"}},{"base_weights":[-2.2972355E-2,-1.7161517E-1,8.7122345E-1,-4.678756E-1,2.1859114E-1,-2.8565848E-2,1.1943465E0,2.0001972E-2,-5.1428128E-2,7.4347913E-1,-3.6013752E-1,1.4576463E-1,1.5769776E-2,1.1493945E0,-3.688296E-2,-4.650039E-2,1.7830675E-2,1.4959978E-1,-2.856471E-2],"categories":[],"categories_nodes":[],"categories_segments":[],"categories_sizes":[],"default_left":[0,0,0,0,0,0,0,0,0,0,0,0,0,0,0,0,0,0,0],"id":77,"left_children":[1,3,5,7,9,-1,11,-1,-1,13,15,-1,-1,17,-1,-1,-1,-1,-1],"loss_changes":[5.326983E0,4.0600696E0,2.4782014E0,7.1590567E-1,4.9630876E0,0E0,1.0425372E0,0E0,0E0,4.230941E0,5.360495E-1,0E0,0E0,3.6207867E0,0E0,0E0,0E0,0E0,0E0],"parents":[2147483647,0,0,1,1,2,2,3,3,4,4,6,6,9,9,10,10,13,13],"right_children":[2,4,6,8,10,-1,12,-1,-1,14,16,-1,-1,18,-1,-1,-1,-1,-1],"split_conditions":[1.3855561E0,3.4718135E-1,-3.8542426E-1,-1.4936097E0,-3.849535E-1,-2.8565848E-2,-1.497838E-1,2.0001972E-2,-5.1428128E-2,8.792444E-2,4.4333813E-1,1.4576463E-1,1.5769776E-2,-1.9495761E-1,-3.688296E-2,-4.650039E-2,1.7830675E-2,1.4959978E-1,-2.856471E-2],"split_indices":[69,79,10,138,10,0,1,0,0,123,176,0,0,27,0,0,0,0,0],"split_type":[0,0,0,0,0,0,0,0,0,0,0,0,0,0,0,0,0,0,0],"sum_hessian":[3.7952995E1,3.3236195E1,4.7167983E0,1.8779211E1,1.44569845E1,1.0551119E0,3.6616864E0,1.0049648E0,1.7774246E1,7.431857E0,7.0251274E0,2.5961683E0,1.065518E0,5.420434E0,2.011423E0,5.9941187E0,1.0310092E0,4.331723E0,1.0887104E0],"tree_param":{"num_deleted":"0","num_feature":"194","num_nodes":"19","size_leaf_vector":"1"}},{"base_weights":[9.109331E-3,6.456574E-1,-4.334373E-1,-4.3417256E-2,1.0649881E0,-5.1500667E-2,6.517359E-2,1.2707742E-1,1.5223007E-1,5.33075E-2,-2.9463751E-2],"categories":[],"categories_nodes":[],"categories_segments":[],"categories_sizes":[],"default_left":[0,0,0,0,0,0,0,0,0,0,0],"id":78,"left_children":[1,3,5,-1,7,-1,-1,-1,9,-1,-1],"loss_changes":[1.0655099E1,7.4836946E0,2.31173E0,0E0,1.9588461E0,0E0,0E0,0E0,7.091864E-1,0E0,0E0],"parents":[2147483647,0,0,1,1,2,2,4,4,8,8],"right_children":[2,4,6,-1,8,-1,-1,-1,10,-1,-1],"split_conditions":[-4.894167E-1,-1.0049508E-1,4.557356E0,-4.3417256E-2,1.9523486E-1,-5.1500667E-2,6.517359E-2,1.2707742E-1,-4.078231E-1,5.33075E-2,-2.9463751E-2],"split_indices":[28,21,36,0,22,0,0,0,11,0,0],"split_type":[0,0,0,0,0,0,0,0,0,0,0],"sum_hessian":[3.583055E1,1.4506214E1,2.1324339E1,4.047638E0,1.0458576E1,2.0322191E1,1.0021465E0,8.21437E0,2.2442062E0,1.1074564E0,1.1367497E0],"tree_param":{"num_deleted":"0","num_feature":"194","num_nodes":"11","size_leaf_vector":"1"}},{"base_weights":[-6.7060806E-2,4.595408E-1,-5.1490586E-2,-5.638297E-2,9.4338226E-1,-3.7211448E-1,7.649149E-2,-2.93662E-2,1.1380904E0,-4.730193E-2,1.4781865E-2,1.2485611E-1,1.9232746E-2],"categories":[],"categories_nodes":[],"categories_segments":[],"categories_sizes":[],"default_left":[0,0,0,0,0,0,0,0,0,0,0,0,0],"id":79,"left_children":[1,3,-1,5,7,9,-1,-1,11,-1,-1,-1,-1],"loss_changes":[9.450061E0,4.667078E0,0E0,2.8488617E0,2.6451902E0,4.7995186E-1,0E0,0E0,6.474047E-1,0E0,0E0,0E0,0E0],"parents":[2147483647,0,0,1,1,3,3,4,4,5,5,8,8],"right_children":[2,4,-1,6,8,10,-1,-1,12,-1,-1,-1,-1],"split_conditions":[-5.275684E-1,-6.2392E-1,-5.1490586E-2,2.9833108E-1,-3.1561404E-1,1.9420857E0,7.649149E-2,-2.93662E-2,3.056388E-1,-4.730193E-2,1.4781865E-2,1.2485611E-1,1.9232746E-2],